{"learner":{"attributes":{"scikit_learn":"{\"_estimator_type\": \"regressor\"}"},"feature_names":[],"feature_types":[],"gradient_booster":{"model":{"cats":{"enc":[],"feature_segments":[],"sorted_idx":[]},"gbtree_model_param":{"num_parallel_tree":"1","num_trees":"300"},"iteration_indptr":[0,1,2,3,4,5,6,7,8,9,10,11,12,13,14,15,16,17,18,19,20,21,22,23,24,25,26,27,28,29,30,31,32,33,34,35,36,37,38,39,40,41,42,43,44,45,46,47,48,49,50,51,52,53,54,55,56,57,58,59,60,61,62,63,64,65,66,67,68,69,70,71,72,73,74,75,76,77,78,79,80,81,82,83,84,85,86,87,88,89,90,91,92,93,94,95,96,97,98,99,100,101,102,103,104,105,106,107,108,109,110,111,112,113,114,115,116,117,118,119,120,121,122,123,124,125,126,127,128,129,130,131,132,133,134,135,136,137,138,139,140,141,142,143,144,145,146,147,148,149,150,151,152,153,154,155,156,157,158,159,160,161,162,163,164,165,166,167,168,169,170,171,172,173,174,175,176,177,178,179,180,181,182,183,184,185,186,187,188,189,190,191,192,193,194,195,196,197,198,199,200,201,202,203,204,205,206,207,208,209,210,211,212,213,214,215,216,217,218,219,220,221,222,223,224,225,226,227,228,229,230,231,232,233,234,235,236,237,238,239,240,241,242,243,244,245,246,247,248,249,250,251,252,253,254,255,256,257,258,259,260,261,262,263,264,265,266,267,268,269,270,271,272,273,274,275,276,277,278,279,280,281,282,283,284,285,286,287,288,289,290,291,292,293,294,295,296,297,298,299,300],"tree_info":[0,0,0,0,0,0,0,0,0,0,0,0,0,0,0,0,0,0,0,0,0,0,0,0,0,0,0,0,0,0,0,0,0,0,0,0,0,0,0,0,0,0,0,0,0,0,0,0,0,0,0,0,0,0,0,0,0,0,0,0,0,0,0,0,0,0,0,0,0,0,0,0,0,0,0,0,0,0,0,0,0,0,0,0,0,0,0,0,0,0,0,0,0,0,0,0,0,0,0,0,0,0,0,0,0,0,0,0,0,0,0,0,0,0,0,0,0,0,0,0,0,0,0,0,0,0,0,0,0,0,0,0,0,0,0,0,0,0,0,0,0,0,0,0,0,0,0,0,0,0,0,0,0,0,0,0,0,0,0,0,0,0,0,0,0,0,0,0,0,0,0,0,0,0,0,0,0,0,0,0,0,0,0,0,0,0,0,0,0,0,0,0,0,0,0,0,0,0,0,0,0,0,0,0,0,0,0,0,0,0,0,0,0,0,0,0,0,0,0,0,0,0,0,0,0,0,0,0,0,0,0,0,0,0,0,0,0,0,0,0,0,0,0,0,0,0,0,0,0,0,0,0,0,0,0,0,0,0,0,0,0,0,0,0,0,0,0,0,0,0,0,0,0,0,0,0,0,0,0,0,0,0,0,0,0,0,0,0,0,0,0,0,0,0,0,0,0,0,0,0],"trees":[{"base_weights":[8.460761E1,-1.2575712E3,6.447273E4,-1.8116029E3,1.6920777E4,4.8236266E4,8.915043E4,-1.8616525E3,3.817895E3,1.1800616E4,2.3535236E4,3.752165E4,6.3554504E4,7.033691E4,1.2030021E5,-1.9890283E3,-8.512054E2,6.3573677E3,1.1105575E3,9.65528E3,1.7527875E4,1.9591062E4,4.2238348E4,3.2789062E4,2.597496E3,3.1530783E4,7.189053E4,5.712309E4,8.341305E4,7.054394E3,9.051945E4,-1.008612E2,-1.7931927E3,-1.0577648E3,-1.373681E2,4.5286675E3,8.89457E3,3.620338E2,2.3275198E3,5.7312817E3,1.0669712E4,7.1823944E2,1.2607997E3,2.3855795E4,1.4553764E4,4.9335785E4,1.2619564E3,1.1186827E3,3.616969E4,3.6739227E4,8.797457E2,4.4331323E3,2.8343933E3,1.3229309E3,5.9108992E4,4.42953E3,2.353742E3,9.3293836E4,1.0838734E3,-9.109815E1,-7.847024E1,-6.423094E1,-3.630919E1,-2.8377934E1,2.2364431E1,2.882596E2,1.554623E2,6.0286176E2,3.1130515E2,3.7071903E1,-3.0492213E0,1.4660378E2,2.141052E1,3.2492E2,5.341642E1,4.9449487E2,8.819831E2,1.0112607E3,1.4863529E3,5.8746027E2,9.686935E2,6.608981E2,2.5341418E3,2.063465E3,1.3322201E3,5.40316E2,1.9209979E3,3.1310366E3,1.8559791E3,1.0936423E3,4.81953E3],"categories":[],"categories_nodes":[],"categories_segments":[],"categories_sizes":[],"default_left":[0,0,0,0,0,0,0,0,0,0,0,0,0,0,0,0,0,0,0,0,0,0,0,0,0,0,0,0,0,0,0,0,0,0,0,0,0,0,0,0,0,0,0,0,0,0,0,0,0,0,0,0,0,0,0,0,0,0,0,0,0,0,0,0,0,0,0,0,0,0,0,0,0,0,0,0,0,0,0,0,0,0,0,0,0,0,0,0,0,0,0],"id":0,"left_children":[1,3,5,7,9,11,13,15,17,19,21,23,25,27,29,31,33,35,37,39,41,43,45,47,-1,49,51,53,55,-1,57,-1,59,61,63,65,67,69,71,73,75,-1,-1,77,79,81,-1,-1,83,85,-1,-1,-1,-1,87,-1,-1,89,-1,-1,-1,-1,-1,-1,-1,-1,-1,-1,-1,-1,-1,-1,-1,-1,-1,-1,-1,-1,-1,-1,-1,-1,-1,-1,-1,-1,-1,-1,-1,-1,-1],"loss_changes":[1.1003854E12,1.2565098E11,9.987614E10,3.4177434E9,1.2219236E10,2.3711875E10,5.1314295E10,1.5426519E9,7.2858714E8,2.411012E9,1.0975445E10,4.8517857E9,1.4818083E10,6.639026E9,1.0134487E10,5.5218176E7,1.9817478E8,2.1490765E8,4.7436384E7,5.558477E8,9.99596E8,2.5314918E9,2.0123812E9,1.831551E9,0E0,4.423383E8,7.722959E9,6.283346E8,1.6620257E9,0E0,1.415512E9,0E0,5.832704E6,7.752205E7,7.6462536E7,4.174963E7,1.1059866E8,5.502044E6,2.1709224E7,1.1467686E8,4.8864666E8,0E0,0E0,9.122038E8,6.375414E8,2.05824E8,0E0,0E0,1.5720366E9,2.06848E7,0E0,0E0,0E0,0E0,2.238382E8,0E0,0E0,1.6516055E9,0E0,0E0,0E0,0E0,0E0,0E0,0E0,0E0,0E0,0E0,0E0,0E0,0E0,0E0,0E0,0E0,0E0,0E0,0E0,0E0,0E0,0E0,0E0,0E0,0E0,0E0,0E0,0E0,0E0,0E0,0E0,0E0,0E0],"parents":[2147483647,0,0,1,1,2,2,3,3,4,4,5,5,6,6,7,7,8,8,9,9,10,10,11,11,12,12,13,13,14,14,15,15,16,16,17,17,18,18,19,19,20,20,21,21,22,22,23,23,25,25,26,26,27,27,28,28,30,30,32,32,33,33,34,34,35,35,36,36,37,37,38,38,39,39,40,40,43,43,44,44,45,45,48,48,49,49,54,54,57,57],"right_children":[2,4,6,8,10,12,14,16,18,20,22,24,26,28,30,32,34,36,38,40,42,44,46,48,-1,50,52,54,56,-1,58,-1,60,62,64,66,68,70,72,74,76,-1,-1,78,80,82,-1,-1,84,86,-1,-1,-1,-1,88,-1,-1,90,-1,-1,-1,-1,-1,-1,-1,-1,-1,-1,-1,-1,-1,-1,-1,-1,-1,-1,-1,-1,-1,-1,-1,-1,-1,-1,-1,-1,-1,-1,-1,-1,-1],"split_conditions":[2.6974808E2,1.264819E2,3.2798322E2,1.6013226E2,3E0,3E0,3E0,6.701837E1,2E0,2.4442912E2,1.7285806E2,2.1821957E2,2E0,3.5061023E2,4E0,4.2106003E1,1.2256344E2,3E0,3E0,2.042524E2,2E0,4E0,4E0,2E0,2.597496E3,5E0,4E0,2E0,2E0,7.054394E3,4E0,-1.008612E2,6.144009E1,3E0,3E0,2E0,4E0,2E0,5E0,2E0,2E0,7.1823944E2,1.2607997E3,2.3389919E2,2.3389919E2,2.3389919E2,1.2619564E3,1.1186827E3,2E0,8.015703E2,8.797457E2,4.4331323E3,2.8343933E3,1.3229309E3,2E0,4.42953E3,2.353742E3,2E0,1.0838734E3,-9.109815E1,-7.847024E1,-6.423094E1,-3.630919E1,-2.8377934E1,2.2364431E1,2.882596E2,1.554623E2,6.0286176E2,3.1130515E2,3.7071903E1,-3.0492213E0,1.4660378E2,2.141052E1,3.2492E2,5.341642E1,4.9449487E2,8.819831E2,1.0112607E3,1.4863529E3,5.8746027E2,9.686935E2,6.608981E2,2.5341418E3,2.063465E3,1.3322201E3,5.40316E2,1.9209979E3,3.1310366E3,1.8559791E3,1.0936423E3,4.81953E3],"split_indices":[10,9,10,10,2,2,2,10,1,10,9,9,1,10,2,10,10,2,2,10,1,2,2,1,0,2,2,1,2,0,3,0,10,2,2,2,2,2,2,1,1,0,0,10,10,10,0,0,2,7,0,0,0,0,2,0,0,1,0,0,0,0,0,0,0,0,0,0,0,0,0,0,0,0,0,0,0,0,0,0,0,0,0,0,0,0,0,0,0,0,0],"split_type":[0,0,0,0,0,0,0,0,0,0,0,0,0,0,0,0,0,0,0,0,0,0,0,0,0,0,0,0,0,0,0,0,0,0,0,0,0,0,0,0,0,0,0,0,0,0,0,0,0,0,0,0,0,0,0,0,0,0,0,0,0,0,0,0,0,0,0,0,0,0,0,0,0,0,0,0,0,0,0,0,0,0,0,0,0,0,0,0,0,0,0],"sum_hessian":[1.2731E4,1.2472E4,2.59E2,1.2104E4,3.68E2,1.58E2,1.01E2,1.1998E4,1.06E2,2.09E2,1.59E2,9.5E1,6.3E1,6.5E1,3.6E1,1.0654E4,1.344E3,5.4E1,5.2E1,1.54E2,5.5E1,1.33E2,2.6E1,7.4E1,2.1E1,1.4E1,4.9E1,3.5E1,3E1,1.9E1,1.7E1,9.305E3,1.349E3,1.042E3,3.02E2,3.3E1,2.1E1,3.3E1,1.9E1,3.3E1,1.21E2,4.1E1,1.4E1,7E1,6.3E1,1.7E1,9E0,2E1,5.4E1,9E0,5E0,2.1E1,2.8E1,3E0,3.2E1,2.5E1,5E0,1.6E1,1E0,1.189E3,1.6E2,6.17E2,4.25E2,1.74E2,1.28E2,1.6E1,1.7E1,8E0,1.3E1,1.7E1,1.6E1,1.4E1,5E0,2.8E1,5E0,1.11E2,1E1,4.6E1,2.4E1,4.2E1,2.1E1,1E0,1.6E1,3.3E1,2.1E1,1E0,8E0,2.6E1,6E0,1E0,1.5E1],"tree_param":{"num_deleted":"0","num_feature":"11","num_nodes":"91","size_leaf_vector":"1"}},{"base_weights":[-3.912206E1,-1.258494E3,6.1803438E4,-1.7181992E3,1.51746E4,4.615237E4,8.4734805E4,-1.76964E3,4.0514663E3,1.2448667E4,2.2870195E4,1.4331421E3,5.107395E4,7.039747E4,4.724337E3,-1.8898292E3,-8.240118E2,6.9877686E3,1.0948881E3,1.03325205E4,1.5259329E4,1.9070291E4,3.2779906E4,3.831212E4,5.5742586E4,7.345145E4,1.9406836E3,-9.5815056E1,-1.7033136E3,-1.02297064E3,-1.2984648E2,9.165672E3,5.8295547E3,2.1823374E3,7.0633624E2,1.0706909E4,6.308492E1,1.2963761E4,1.7118441E4,2.1066637E4,1.469891E4,8.395635E2,3.6288348E4,8.5136566E2,2.029126E3,5.6103652E4,6.624042E2,2.8368882E3,8.153343E4,-8.658086E1,-7.361136E1,-5.760905E1,-4.354437E1,9.170803E1,-1.0478419E1,5.405451E2,1.5274701E2,9.5282776E1,3.055721E2,4.307364E1,1.4102159E2,8.897572E1,2.2042868E1,5.1669403E2,9.430563E2,6.585988E2,5.8618427E1,4.406523E2,9.062534E2,4.154066E2,1.0743182E3,4.324017E2,7.918043E2,2.0565688E3,9.8735297E2,7.278473E2,2.8220513E3,1.648376E3,4.2224995E3],"categories":[],"categories_nodes":[],"categories_segments":[],"categories_sizes":[],"default_left":[0,0,0,0,0,0,0,0,0,0,0,0,0,0,0,0,0,0,0,0,0,0,0,0,0,0,0,0,0,0,0,0,0,0,0,0,0,0,0,0,0,0,0,0,0,0,0,0,0,0,0,0,0,0,0,0,0,0,0,0,0,0,0,0,0,0,0,0,0,0,0,0,0,0,0,0,0,0,0],"id":1,"left_children":[1,3,5,7,9,11,13,15,17,19,21,-1,23,25,-1,27,29,31,33,35,37,39,41,43,45,47,-1,-1,49,51,53,55,57,59,61,63,-1,65,67,69,71,-1,73,-1,-1,75,-1,-1,77,-1,-1,-1,-1,-1,-1,-1,-1,-1,-1,-1,-1,-1,-1,-1,-1,-1,-1,-1,-1,-1,-1,-1,-1,-1,-1,-1,-1,-1,-1],"loss_changes":[9.632781E11,9.465976E10,8.4737655E10,3.624231E9,6.8686807E9,1.1361419E10,7.1902167E9,1.3713859E9,9.29941E8,1.3530685E9,2.688598E9,0E0,4.7161344E9,1.3931479E9,0E0,4.965171E7,1.882496E8,8.278221E7,2.1697712E7,4.891013E8,2.3472742E8,2.6631168E8,6.808617E8,9.520415E8,5.148836E8,6.4208896E8,0E0,0E0,6.221312E6,1.9826304E7,4.8139564E7,1.3788378E8,3.0385408E7,9.369984E6,1.1181548E7,2.3702118E8,0E0,1.1222528E8,3.0844723E8,5.1757056E7,2.819072E7,0E0,6.297559E8,0E0,0E0,3.137536E8,0E0,0E0,6.1538304E8,0E0,0E0,0E0,0E0,0E0,0E0,0E0,0E0,0E0,0E0,0E0,0E0,0E0,0E0,0E0,0E0,0E0,0E0,0E0,0E0,0E0,0E0,0E0,0E0,0E0,0E0,0E0,0E0,0E0,0E0],"parents":[2147483647,0,0,1,1,2,2,3,3,4,4,5,5,6,6,7,7,8,8,9,9,10,10,12,12,13,13,15,15,16,16,17,17,18,18,19,19,20,20,21,21,22,22,23,23,24,24,25,25,28,28,29,29,30,30,31,31,32,32,33,33,34,34,35,35,37,37,38,38,39,39,40,40,42,42,45,45,48,48],"right_children":[2,4,6,8,10,12,14,16,18,20,22,-1,24,26,-1,28,30,32,34,36,38,40,42,44,46,48,-1,-1,50,52,54,56,58,60,62,64,-1,66,68,70,72,-1,74,-1,-1,76,-1,-1,78,-1,-1,-1,-1,-1,-1,-1,-1,-1,-1,-1,-1,-1,-1,-1,-1,-1,-1,-1,-1,-1,-1,-1,-1,-1,-1,-1,-1,-1,-1],"split_conditions":[2.6974808E2,1.9093686E2,3.2798322E2,1.6013226E2,2.4442912E2,2E0,3.5061023E2,6.701837E1,3E0,2.24441E2,2E0,1.4331421E3,2.894666E2,9.2393085E-2,4.724337E3,4.2106003E1,1.2256344E2,1.1576431E1,1.1041691E1,3E0,5.0407536E1,5.3787994E1,3.400199E1,3.2512789E0,2.3839226E1,2.8125737E-2,1.9406836E3,-9.5815056E1,6.144009E1,8.060878E1,3E0,7.1685076E-2,1.2937902E1,1.6138958E-2,7.4652946E-3,2E0,6.308492E1,3E0,4.092912E0,9.4873865E2,6.245636E0,8.395635E2,2.2074749E1,8.5136566E2,2.029126E3,1.7865883E0,6.624042E2,2.8368882E3,3.5192165E0,-8.658086E1,-7.361136E1,-5.760905E1,-4.354437E1,9.170803E1,-1.0478419E1,5.405451E2,1.5274701E2,9.5282776E1,3.055721E2,4.307364E1,1.4102159E2,8.897572E1,2.2042868E1,5.1669403E2,9.430563E2,6.585988E2,5.8618427E1,4.406523E2,9.062534E2,4.154066E2,1.0743182E3,4.324017E2,7.918043E2,2.0565688E3,9.8735297E2,7.278473E2,2.8220513E3,1.648376E3,4.2224995E3],"split_indices":[10,10,10,10,10,1,10,10,1,10,1,0,10,4,0,10,10,8,5,1,5,5,5,8,8,4,0,0,10,10,1,4,8,4,4,1,0,1,8,7,8,0,8,0,0,8,0,0,8,0,0,0,0,0,0,0,0,0,0,0,0,0,0,0,0,0,0,0,0,0,0,0,0,0,0,0,0,0,0],"split_type":[0,0,0,0,0,0,0,0,0,0,0,0,0,0,0,0,0,0,0,0,0,0,0,0,0,0,0,0,0,0,0,0,0,0,0,0,0,0,0,0,0,0,0,0,0,0,0,0,0,0,0,0,0,0,0,0,0,0,0,0,0,0,0,0,0,0,0,0,0,0,0,0,0,0,0,0,0,0,0],"sum_hessian":[1.2772E4,1.2526E4,2.46E2,1.2186E4,3.4E2,1.48E2,9.8E1,1.2079E4,1.07E2,2.53E2,8.7E1,3.4E1,1.14E2,4.3E1,5.5E1,1.0716E4,1.363E3,5.3E1,5.4E1,1.47E2,1.06E2,6.5E1,2.2E1,3.3E1,8.1E1,3.8E1,5E0,9.376E3,1.34E3,1.059E3,3.04E2,1.6E1,3.7E1,1.3E1,4.1E1,1.41E2,6E0,5.1E1,5.5E1,4.2E1,2.3E1,5E0,1.7E1,4E0,2.9E1,8E1,1E0,1.5E1,2.3E1,1.188E3,1.52E2,5.69E2,4.9E2,1.1E1,2.93E2,1.2E1,4E0,3E0,3.4E1,5E0,8E0,7E0,3.4E1,1.37E2,4E0,5E1,1E0,7E0,4.8E1,2E0,4E1,5E0,1.8E1,1.2E1,5E0,1E0,7.9E1,2E0,2.1E1],"tree_param":{"num_deleted":"0","num_feature":"11","num_nodes":"79","size_leaf_vector":"1"}},{"base_weights":[1.9254847E1,-1.1568156E3,5.928557E4,-1.6367545E3,1.518981E4,4.4937438E4,7.9523195E4,-1.6800437E3,3.777887E3,1.0596663E4,2.1274768E4,3.3726664E4,5.994389E4,6.318168E4,1.0900033E5,-1.7956051E3,-7.777794E2,2.2057512E3,6.267681E3,8.567995E3,1.5625541E4,1.8775924E4,4.1497617E4,2.4699746E4,3.781426E4,7.9429336E4,4.463131E4,5.0080344E4,7.635567E4,1.2134944E5,2.9920935E3,-9.102233E1,-1.6218193E3,-9.919334E2,-1.7122878E2,4.087632E3,1.0393665E3,3.7753977E3,9.302842E3,9.713827E3,5.612855E3,1.9155535E4,1.3263556E4,1.4914683E4,2.4331713E4,1.00458295E3,2.3479316E3,3.6385342E2,1.2524799E3,4.2260152E4,1.3627034E3,2.7258972E3,8.941078E4,3.6041633E4,2.9761501E3,2.676719E3,1.6693096E3,4.0074753E3,1.9919535E3,9.95379E2,6.2242686E3,-8.4071396E1,-7.639355E1,-5.8911266E1,-3.504525E1,-2.8307814E1,1.8957102E1,1.3030045E2,2.6143097E2,1.4604154E1,1.4574947E2,2.2599841E2,9.5370155E1,5.619331E2,2.1016812E2,2.9665515E2,5.403735E2,1.2072515E2,3.128265E2,1.0417963E3,4.80555E2,7.389731E2,5.1277356E2,9.1301886E2,5.3889545E2,1.4900466E3,8.9967523E2,2.1661355E3,7.5342725E2,1.2764468E3,4.590392E3,6.7766974E2,1.9192802E3],"categories":[],"categories_nodes":[],"categories_segments":[],"categories_sizes":[],"default_left":[0,0,0,0,0,0,0,0,0,0,0,0,0,0,0,0,0,0,0,0,0,0,0,0,0,0,0,0,0,0,0,0,0,0,0,0,0,0,0,0,0,0,0,0,0,0,0,0,0,0,0,0,0,0,0,0,0,0,0,0,0,0,0,0,0,0,0,0,0,0,0,0,0,0,0,0,0,0,0,0,0,0,0,0,0,0,0,0,0,0,0,0,0],"id":2,"left_children":[1,3,5,7,9,11,13,15,17,19,21,23,25,27,29,31,33,35,37,39,41,43,45,47,49,51,53,55,57,59,-1,-1,61,63,65,67,69,71,73,75,77,79,81,83,85,-1,-1,-1,-1,87,-1,-1,89,91,-1,-1,-1,-1,-1,-1,-1,-1,-1,-1,-1,-1,-1,-1,-1,-1,-1,-1,-1,-1,-1,-1,-1,-1,-1,-1,-1,-1,-1,-1,-1,-1,-1,-1,-1,-1,-1,-1,-1],"loss_changes":[8.9196724E11,9.846872E10,6.8729045E10,2.8638638E9,9.78033E9,2.2876914E10,4.224667E10,1.2597146E9,3.6586163E8,1.9677184E9,6.952501E9,2.2761636E9,1.4954054E10,7.912669E9,1.3985448E10,4.3331584E7,1.784361E8,1.2964627E8,2.4476378E8,4.50006E8,2.2952243E8,2.5975112E9,9.268941E8,5.71392E5,1.5713075E9,1.5904604E9,2.5875415E9,3.4618573E8,1.2401213E9,6.1109043E9,0E0,0E0,4.990976E6,5.4257856E7,7.846301E7,2.5256E7,5.3811836E7,2.1977376E7,1.1070669E8,3.7416243E8,7.547648E7,1.3654886E8,2.1708288E7,9.6578355E8,1.3703537E9,0E0,0E0,0E0,0E0,4.739973E8,0E0,0E0,2.5942426E8,8.502518E8,0E0,0E0,0E0,0E0,0E0,0E0,0E0,0E0,0E0,0E0,0E0,0E0,0E0,0E0,0E0,0E0,0E0,0E0,0E0,0E0,0E0,0E0,0E0,0E0,0E0,0E0,0E0,0E0,0E0,0E0,0E0,0E0,0E0,0E0,0E0,0E0,0E0,0E0,0E0],"parents":[2147483647,0,0,1,1,2,2,3,3,4,4,5,5,6,6,7,7,8,8,9,9,10,10,11,11,12,12,13,13,14,14,15,15,16,16,17,17,18,18,19,19,20,20,21,21,22,22,23,23,24,24,25,25,26,26,27,27,28,28,29,29,32,32,33,33,34,34,35,35,36,36,37,37,38,38,39,39,40,40,41,41,42,42,43,43,44,44,49,49,52,52,53,53],"right_children":[2,4,6,8,10,12,14,16,18,20,22,24,26,28,30,32,34,36,38,40,42,44,46,48,50,52,54,56,58,60,-1,-1,62,64,66,68,70,72,74,76,78,80,82,84,86,-1,-1,-1,-1,88,-1,-1,90,92,-1,-1,-1,-1,-1,-1,-1,-1,-1,-1,-1,-1,-1,-1,-1,-1,-1,-1,-1,-1,-1,-1,-1,-1,-1,-1,-1,-1,-1,-1,-1,-1,-1,-1,-1,-1,-1,-1,-1],"split_conditions":[2.6974808E2,1.264819E2,3.2798322E2,1.6013226E2,3E0,3E0,3E0,6.701837E1,3E0,2.4442912E2,1.8222705E2,2.894666E2,4E0,3.5061023E2,5E0,4.2106003E1,1.1900999E2,7.11717E2,1.1523316E2,2E0,7.7511206E2,2.3389919E2,2.451503E-2,1.6510701E2,2E0,2.894666E2,2.0259639E2,2E0,2E0,1.601448E-3,2.9920935E3,-9.102233E1,3E0,3E0,3E0,2.864656E2,1.9093686E2,5E0,3.4816938E4,2.042524E2,2.042524E2,2.30205E1,2E0,4E0,4E0,1.00458295E3,2.3479316E3,3.6385342E2,1.2524799E3,3.6196055E4,1.3627034E3,2.7258972E3,1.1025867E2,3.6848832E-3,2.9761501E3,2.676719E3,1.6693096E3,4.0074753E3,1.9919535E3,9.95379E2,6.2242686E3,-8.4071396E1,-7.639355E1,-5.8911266E1,-3.504525E1,-2.8307814E1,1.8957102E1,1.3030045E2,2.6143097E2,1.4604154E1,1.4574947E2,2.2599841E2,9.5370155E1,5.619331E2,2.1016812E2,2.9665515E2,5.403735E2,1.2072515E2,3.128265E2,1.0417963E3,4.80555E2,7.389731E2,5.1277356E2,9.1301886E2,5.3889545E2,1.4900466E3,8.9967523E2,2.1661355E3,7.5342725E2,1.2764468E3,4.590392E3,6.7766974E2,1.9192802E3],"split_indices":[10,9,10,10,2,2,2,10,2,10,9,10,2,10,2,10,10,6,9,2,6,10,4,9,2,10,9,2,2,4,0,0,2,2,2,6,10,2,6,10,10,8,2,2,2,0,0,0,0,6,0,0,6,4,0,0,0,0,0,0,0,0,0,0,0,0,0,0,0,0,0,0,0,0,0,0,0,0,0,0,0,0,0,0,0,0,0,0,0,0,0,0,0],"split_type":[0,0,0,0,0,0,0,0,0,0,0,0,0,0,0,0,0,0,0,0,0,0,0,0,0,0,0,0,0,0,0,0,0,0,0,0,0,0,0,0,0,0,0,0,0,0,0,0,0,0,0,0,0,0,0,0,0,0,0,0,0,0,0,0,0,0,0,0,0,0,0,0,0,0,0,0,0,0,0,0,0,0,0,0,0,0,0,0,0,0,0,0,0],"sum_hessian":[1.2795E4,1.2547E4,2.48E2,1.219E4,3.57E2,1.47E2,1.01E2,1.2094E4,9.6E1,2.05E2,1.52E2,8.6E1,6.1E1,6.7E1,3.4E1,1.072E4,1.374E3,6E1,3.6E1,1.48E2,5.7E1,1.37E2,1.5E1,2.9E1,5.7E1,2.5E1,3.6E1,3.6E1,3.1E1,2.6E1,8E0,9.371E3,1.349E3,1.015E3,3.59E2,2.2E1,3.8E1,2.1E1,1.5E1,1.05E2,4.3E1,2E1,3.7E1,8.3E1,5.4E1,4E0,1.1E1,1E0,2.8E1,3.8E1,1.9E1,9E0,1.6E1,2.5E1,1.1E1,2.8E1,8E0,2.7E1,4E0,1E0,2.5E1,8.15E2,5.34E2,6.17E2,3.98E2,2.09E2,1.5E2,1.1E1,1.1E1,2.8E1,1E1,1.4E1,7E0,1E1,5E0,2.5E1,8E1,8E0,3.5E1,1.6E1,4E0,2.2E1,1.5E1,4.4E1,3.9E1,2.7E1,2.7E1,3.6E1,2E0,1E0,1.5E1,3E0,2.2E1],"tree_param":{"num_deleted":"0","num_feature":"11","num_nodes":"93","size_leaf_vector":"1"}},{"base_weights":[-3.430552E0,-1.1321509E3,5.639229E4,-1.5566887E3,1.3941608E4,4.7725195E4,9.045284E4,-1.5979039E3,3.1790847E3,9.820243E3,2.0127182E4,3.7570414E4,6.455508E4,6.796162E4,6.0395806E3,-1.7008816E3,-7.016358E2,5.619421E3,8.9986646E2,8.0359277E3,1.4220437E4,1.6975088E4,4.290395E4,3.077512E4,5.091364E4,8.134303E4,4.8649387E4,3.7192869E3,2.0097035E3,-8.647206E1,-1.5196871E3,-8.3785565E2,4.17407E1,3.725681E3,8.1473496E3,2.0268005E2,1.9681235E3,9.379042E3,5.2984795E3,1.2007494E4,1.0563597E3,1.1582956E4,2.0199719E4,1.3351305E3,2.6269019E3,9.8580585E2,3.3534613E4,5.4479402E4,1.7027635E3,1.9547386E3,4.436798E3,3.6700527E4,2.9140806E3,-7.824572E1,-6.43347E1,-5.367588E1,-2.4932817E1,-1.709725E1,3.1708372E1,2.3831197E2,1.22613396E2,6.004888E2,2.679148E2,-3.7314193E0,3.1198668E1,1.3015929E2,1.1769646E1,3.3046347E2,5.4504126E2,1.7157277E2,3.1790683E2,6.721954E2,4.6980704E2,6.4070667E2,3.6412738E2,1.1319846E3,8.106757E2,1.8839965E3,1.2365829E3,9.8608563E2,2.8042825E3,9.790944E2,2.0413118E3],"categories":[],"categories_nodes":[],"categories_segments":[],"categories_sizes":[],"default_left":[0,0,0,0,0,0,0,0,0,0,0,0,0,0,0,0,0,0,0,0,0,0,0,0,0,0,0,0,0,0,0,0,0,0,0,0,0,0,0,0,0,0,0,0,0,0,0,0,0,0,0,0,0,0,0,0,0,0,0,0,0,0,0,0,0,0,0,0,0,0,0,0,0,0,0,0,0,0,0,0,0,0,0],"id":3,"left_children":[1,3,5,7,9,11,13,15,17,19,21,23,25,27,-1,29,31,33,35,37,39,41,43,45,47,49,51,-1,-1,-1,53,55,57,59,61,63,65,67,69,71,-1,73,75,-1,-1,-1,77,79,-1,-1,-1,81,-1,-1,-1,-1,-1,-1,-1,-1,-1,-1,-1,-1,-1,-1,-1,-1,-1,-1,-1,-1,-1,-1,-1,-1,-1,-1,-1,-1,-1,-1,-1],"loss_changes":[8.1752136E11,8.05963E10,7.007502E10,2.395519E9,8.597434E9,3.2268091E10,2.590861E10,1.1194614E9,5.845215E8,1.526655E9,9.107546E9,1.0129703E10,1.6069493E10,2.5399788E9,0E0,5.3725184E7,1.2691706E8,2.1379482E8,4.1308464E7,5.054884E8,6.480865E8,1.887318E9,1.0944594E9,2.0243415E9,6.6943386E8,7.462732E9,2.5798984E9,0E0,0E0,0E0,1.3697792E7,8.411725E7,4.454145E7,2.9388768E7,1.6187085E8,4.1355518E6,2.359584E7,3.494523E8,8.105946E7,4.9974784E7,0E0,1.608192E8,3.623977E8,0E0,0E0,0E0,1.5859876E9,7.362642E8,0E0,0E0,0E0,6.837023E8,0E0,0E0,0E0,0E0,0E0,0E0,0E0,0E0,0E0,0E0,0E0,0E0,0E0,0E0,0E0,0E0,0E0,0E0,0E0,0E0,0E0,0E0,0E0,0E0,0E0,0E0,0E0,0E0,0E0,0E0,0E0],"parents":[2147483647,0,0,1,1,2,2,3,3,4,4,5,5,6,6,7,7,8,8,9,9,10,10,11,11,12,12,13,13,15,15,16,16,17,17,18,18,19,19,20,20,21,21,22,22,23,23,24,24,25,25,26,26,30,30,31,31,32,32,33,33,34,34,35,35,36,36,37,37,38,38,39,39,41,41,42,42,46,46,47,47,51,51],"right_children":[2,4,6,8,10,12,14,16,18,20,22,24,26,28,-1,30,32,34,36,38,40,42,44,46,48,50,52,-1,-1,-1,54,56,58,60,62,64,66,68,70,72,-1,74,76,-1,-1,-1,78,80,-1,-1,-1,82,-1,-1,-1,-1,-1,-1,-1,-1,-1,-1,-1,-1,-1,-1,-1,-1,-1,-1,-1,-1,-1,-1,-1,-1,-1,-1,-1,-1,-1,-1,-1],"split_conditions":[2.6974808E2,1.264819E2,2.3669296E2,1.6013226E2,3E0,3E0,3E0,6.98022E1,3E0,2.4442912E2,1.8222705E2,3.2798322E2,4E0,2E0,6.0395806E3,4.2106003E1,1.31579E2,3E0,3E0,2E0,2E0,2.1616754E2,2E0,2E0,2E0,2E0,3.0476447E2,3.7192869E3,2.0097035E3,-8.647206E1,6.144009E1,3E0,3E0,2E0,4E0,1.1523316E2,5E0,1.439478E2,2.1616754E2,2E0,1.0563597E3,5E0,4E0,1.3351305E3,2.6269019E3,9.8580585E2,2E0,2E0,1.7027635E3,1.9547386E3,4.436798E3,2E0,2.9140806E3,-7.824572E1,-6.43347E1,-5.367588E1,-2.4932817E1,-1.709725E1,3.1708372E1,2.3831197E2,1.22613396E2,6.004888E2,2.679148E2,-3.7314193E0,3.1198668E1,1.3015929E2,1.1769646E1,3.3046347E2,5.4504126E2,1.7157277E2,3.1790683E2,6.721954E2,4.6980704E2,6.4070667E2,3.6412738E2,1.1319846E3,8.106757E2,1.8839965E3,1.2365829E3,9.8608563E2,2.8042825E3,9.790944E2,2.0413118E3],"split_indices":[10,9,9,10,2,2,2,10,1,10,9,10,2,2,0,10,10,2,2,2,1,10,1,1,2,1,10,0,0,0,10,2,2,2,2,9,2,9,10,2,0,2,2,0,0,0,2,1,0,0,0,1,0,0,0,0,0,0,0,0,0,0,0,0,0,0,0,0,0,0,0,0,0,0,0,0,0,0,0,0,0,0,0],"split_type":[0,0,0,0,0,0,0,0,0,0,0,0,0,0,0,0,0,0,0,0,0,0,0,0,0,0,0,0,0,0,0,0,0,0,0,0,0,0,0,0,0,0,0,0,0,0,0,0,0,0,0,0,0,0,0,0,0,0,0,0,0,0,0,0,0,0,0,0,0,0,0,0,0,0,0,0,0,0,0,0,0,0,0],"sum_hessian":[1.2841E4,1.259E4,2.51E2,1.2246E4,3.44E2,2.02E2,4.9E1,1.2141E4,1.05E2,2.08E2,1.36E2,1.28E2,7.4E1,3E1,1.9E1,1.0889E4,1.252E3,5E1,5.5E1,1.5E2,5.8E1,1.21E2,1.5E1,8.7E1,4.1E1,3.4E1,4E1,2.3E1,7E0,9.399E3,1.49E3,1.058E3,1.94E2,3E1,2E1,3.4E1,2.1E1,9.9E1,5.1E1,4.6E1,1.2E1,4.7E1,7.4E1,7E0,8E0,1.9E1,6.8E1,3.2E1,9E0,6E0,2.8E1,2E1,2E1,1.243E3,2.47E2,6.23E2,4.35E2,1.18E2,7.6E1,1.5E1,1.5E1,7E0,1.3E1,2.1E1,1.3E1,1.5E1,6E0,3.7E1,6.2E1,2E1,3.1E1,2.7E1,1.9E1,3.5E1,1.2E1,4.3E1,3.1E1,4.4E1,2.4E1,2E0,3E1,5E0,1.5E1],"tree_param":{"num_deleted":"0","num_feature":"11","num_nodes":"83","size_leaf_vector":"1"}},{"base_weights":[2.0251675E1,-1.0590055E3,5.269298E4,-1.4806426E3,1.3882082E4,4.3910254E4,8.550397E4,-1.5260449E3,2.237606E3,9.847782E3,1.9455594E4,3.3966977E4,5.9537004E4,6.4336152E4,5.999855E3,-1.6212133E3,-7.3833405E2,5.2925303E3,6.0834045E2,8.350162E3,1.7496148E4,1.4462258E4,2.741753E4,1.7378451E4,3.8698492E4,3.1316271E4,6.6888414E4,7.13323E4,1.8099628E3,-8.2116E1,-1.4628748E3,-9.7787427E2,-3.979451E2,3.4632795E3,8.1910957E3,1.2201441E2,1.4663462E3,6.808255E3,1.0212467E4,2.1317742E4,8.0220544E2,1.7813068E4,1.0715603E4,2.1439719E4,4.0274848E4,6.672248E2,1.156653E3,3.378405E4,4.695556E4,1.705219E3,6.515904E2,8.153765E4,2.6838242E3,5.1413525E2,7.3284875E4,-7.587847E1,-6.8685265E1,-5.2592213E1,-2.5578524E1,-2.9923231E1,9.307726E0,2.2759282E2,1.1516255E2,5.8853125E2,2.2588724E2,-1.1032059E1,1.9256752E1,1.0321331E2,-1.29335E0,3.777344E2,2.4571394E2,5.7851447E2,3.4224994E2,1.2517478E3,7.447374E2,5.7774696E1,1.2418281E1,6.015399E2,9.983424E2,2.9270676E2,5.72854E2,1.1746592E3,5.272946E2,2.2436338E3,7.6315985E2,1.1337269E3,1.7582303E3,2.4860815E3,1.4591667E3,3.0630151E3,4.799544E3,2.2138997E3,3.90414E3],"categories":[],"categories_nodes":[],"categories_segments":[],"categories_sizes":[],"default_left":[0,0,0,0,0,0,0,0,0,0,0,0,0,0,0,0,0,0,0,0,0,0,0,0,0,0,0,0,0,0,0,0,0,0,0,0,0,0,0,0,0,0,0,0,0,0,0,0,0,0,0,0,0,0,0,0,0,0,0,0,0,0,0,0,0,0,0,0,0,0,0,0,0,0,0,0,0,0,0,0,0,0,0,0,0,0,0,0,0,0,0,0,0],"id":4,"left_children":[1,3,5,7,9,11,13,15,17,19,21,23,25,27,-1,29,31,33,35,37,39,41,43,45,47,49,51,53,-1,-1,55,57,59,61,63,65,67,69,71,73,75,77,79,81,83,-1,-1,85,87,-1,-1,89,-1,-1,91,-1,-1,-1,-1,-1,-1,-1,-1,-1,-1,-1,-1,-1,-1,-1,-1,-1,-1,-1,-1,-1,-1,-1,-1,-1,-1,-1,-1,-1,-1,-1,-1,-1,-1,-1,-1,-1,-1],"loss_changes":[7.2480345E11,7.872922E10,7.001696E10,2.0548874E9,7.5208376E9,2.9675454E10,3.0977524E10,8.988344E8,7.28441E8,2.1562266E9,5.2886774E9,9.295577E9,1.4087356E10,4.30755E9,0E0,3.339264E7,1.0528256E8,2.4204416E8,4.0296332E7,4.1862656E8,2.0244173E9,9.390121E8,3.2868844E9,3.877161E8,2.3903764E9,4.7318016E8,7.4295706E9,2.46494E9,0E0,0E0,4.104448E6,2.5676224E7,6.300665E7,3.1187712E7,1.966519E8,5.765041E6,3.1281232E7,9.859226E7,2.6373325E8,2.4787763E8,1.0826715E6,3.326546E8,9.513882E7,6.246789E8,1.1550863E9,0E0,0E0,1.995817E8,2.20373E8,0E0,0E0,2.0325499E9,0E0,0E0,1.6113664E8,0E0,0E0,0E0,0E0,0E0,0E0,0E0,0E0,0E0,0E0,0E0,0E0,0E0,0E0,0E0,0E0,0E0,0E0,0E0,0E0,0E0,0E0,0E0,0E0,0E0,0E0,0E0,0E0,0E0,0E0,0E0,0E0,0E0,0E0,0E0,0E0,0E0,0E0],"parents":[2147483647,0,0,1,1,2,2,3,3,4,4,5,5,6,6,7,7,8,8,9,9,10,10,11,11,12,12,13,13,15,15,16,16,17,17,18,18,19,19,20,20,21,21,22,22,23,23,24,24,25,25,26,26,27,27,30,30,31,31,32,32,33,33,34,34,35,35,36,36,37,37,38,38,39,39,40,40,41,41,42,42,43,43,44,44,47,47,48,48,51,51,54,54],"right_children":[2,4,6,8,10,12,14,16,18,20,22,24,26,28,-1,30,32,34,36,38,40,42,44,46,48,50,52,54,-1,-1,56,58,60,62,64,66,68,70,72,74,76,78,80,82,84,-1,-1,86,88,-1,-1,90,-1,-1,92,-1,-1,-1,-1,-1,-1,-1,-1,-1,-1,-1,-1,-1,-1,-1,-1,-1,-1,-1,-1,-1,-1,-1,-1,-1,-1,-1,-1,-1,-1,-1,-1,-1,-1,-1,-1,-1,-1],"split_conditions":[1.8222705E2,1.264819E2,2.3669296E2,9.960336E1,3E0,3E0,3E0,4.4420902E1,3E0,2E0,1.590036E2,2E0,2E0,2E0,5.999855E3,2.8742426E1,3E0,3E0,3E0,1.590036E2,3E0,4E0,2E0,2.0259639E2,2.1821957E2,5E0,4E0,2E0,1.8099628E3,-8.2116E1,3E0,8.495317E1,7.922816E1,2E0,4E0,1.2517104E3,5E0,2E0,2E0,2E0,2E0,1.359267E2,1.359267E2,5E0,5E0,6.672248E2,1.156653E3,3.0390317E2,2E0,1.705219E3,6.515904E2,2.0259639E2,2.6838242E3,5.1413525E2,8.644468E2,-7.587847E1,-6.8685265E1,-5.2592213E1,-2.5578524E1,-2.9923231E1,9.307726E0,2.2759282E2,1.1516255E2,5.8853125E2,2.2588724E2,-1.1032059E1,1.9256752E1,1.0321331E2,-1.29335E0,3.777344E2,2.4571394E2,5.7851447E2,3.4224994E2,1.2517478E3,7.447374E2,5.7774696E1,1.2418281E1,6.015399E2,9.983424E2,2.9270676E2,5.72854E2,1.1746592E3,5.272946E2,2.2436338E3,7.6315985E2,1.1337269E3,1.7582303E3,2.4860815E3,1.4591667E3,3.0630151E3,4.799544E3,2.2138997E3,3.90414E3],"split_indices":[9,9,9,9,2,2,2,9,1,1,9,1,1,2,0,9,2,2,2,9,1,2,1,9,9,2,2,1,0,0,2,9,9,2,2,6,2,2,2,2,2,9,9,2,2,0,0,6,2,0,0,9,0,0,6,0,0,0,0,0,0,0,0,0,0,0,0,0,0,0,0,0,0,0,0,0,0,0,0,0,0,0,0,0,0,0,0,0,0,0,0,0,0],"split_type":[0,0,0,0,0,0,0,0,0,0,0,0,0,0,0,0,0,0,0,0,0,0,0,0,0,0,0,0,0,0,0,0,0,0,0,0,0,0,0,0,0,0,0,0,0,0,0,0,0,0,0,0,0,0,0,0,0,0,0,0,0,0,0,0,0,0,0,0,0,0,0,0,0,0,0,0,0,0,0,0,0,0,0,0,0,0,0,0,0,0,0,0,0],"sum_hessian":[1.2748E4,1.2493E4,2.55E2,1.2151E4,3.42E2,2.03E2,5.2E1,1.2005E4,1.46E2,2E2,1.42E2,1.26E2,7.7E1,3.4E1,1.8E1,1.071E4,1.295E3,5E1,9.6E1,1.69E2,3.1E1,8.9E1,5.3E1,2.9E1,9.7E1,1.7E1,6E1,2.6E1,8E0,9.442E3,1.268E3,7.59E2,5.36E2,3.2E1,1.8E1,6.2E1,3.4E1,9.5E1,7.4E1,2.5E1,6E0,4.5E1,4.4E1,3.8E1,1.5E1,1.9E1,1E1,6.4E1,3.3E1,1.4E1,3E0,2.6E1,3.4E1,1E0,2.5E1,7.76E2,4.92E2,6.54E2,1.05E2,3.99E2,1.37E2,1.5E1,1.7E1,8E0,1E1,2.7E1,3.5E1,2.4E1,1E1,6.6E1,2.9E1,5.1E1,2.3E1,1.4E1,1.1E1,3E0,3E0,1.4E1,3.1E1,7E0,3.7E1,3.1E1,7E0,1.2E1,3E0,9E0,5.5E1,2.7E1,6E0,1.3E1,1.3E1,5E0,2E1],"tree_param":{"num_deleted":"0","num_feature":"11","num_nodes":"93","size_leaf_vector":"1"}},{"base_weights":[-5.3364563E1,-9.967604E2,4.916002E4,-1.4062708E3,1.3182314E4,4.1004766E4,8.109667E4,-1.4502838E3,2.074486E3,1.1103487E4,2.4487238E4,2.051824E4,4.6192703E4,5.012819E2,8.2395516E4,-1.5392793E3,-7.048833E2,4.8620747E3,5.0487152E2,8.893604E3,1.3033297E4,5.839233E3,2.967621E4,4.192003E2,2.1255576E4,3.8929176E4,5.1630992E4,1.9717887E3,8.547466E4,-7.7991394E1,-1.3825035E3,-7.9413824E2,4.784056E0,4.5147783E3,5.9040173E2,3.9487E2,1.144533E3,5.3371807E3,9.238198E3,1.5519468E4,1.1807336E4,1.2192703E4,1.6607239E3,2.0676832E4,3.4419027E4,2.3080822E4,6.918401E2,1.0453862E3,4.0292004E4,5.3173637E4,1.3422633E3,1.4479558E3,8.7525195E4,-7.062243E1,-6.3220303E1,-4.3488903E1,-2.6132278E1,5.3820423E1,-2.0588439E0,2.0306519E2,3.7328455E2,5.2504764E0,3.1657913E1,1.263647E2,1.6934952E1,1.7441603E2,4.1686188E2,3.3259982E2,4.8683005E2,9.9327484E2,6.699125E2,4.9932324E2,6.392566E2,6.7426544E2,1.7555696E2,-9.706183E0,9.584226E1,1.0638242E3,2.770597E2,2.0258231E3,9.1999115E2,4.876367E2,1.1853438E3,1.3595696E3,2.1396155E3,2.7905906E3,1.6896434E3,2.7660193E3,4.573272E3],"categories":[],"categories_nodes":[],"categories_segments":[],"categories_sizes":[],"default_left":[0,0,0,0,0,0,0,0,0,0,0,0,0,0,0,0,0,0,0,0,0,0,0,0,0,0,0,0,0,0,0,0,0,0,0,0,0,0,0,0,0,0,0,0,0,0,0,0,0,0,0,0,0,0,0,0,0,0,0,0,0,0,0,0,0,0,0,0,0,0,0,0,0,0,0,0,0,0,0,0,0,0,0,0,0,0,0,0,0],"id":5,"left_children":[1,3,5,7,9,11,13,15,17,19,21,23,25,-1,27,29,31,33,35,37,39,41,43,-1,45,47,49,-1,51,-1,53,55,57,59,-1,61,63,65,67,69,71,73,75,77,79,81,-1,-1,83,85,-1,-1,87,-1,-1,-1,-1,-1,-1,-1,-1,-1,-1,-1,-1,-1,-1,-1,-1,-1,-1,-1,-1,-1,-1,-1,-1,-1,-1,-1,-1,-1,-1,-1,-1,-1,-1,-1,-1],"loss_changes":[5.948807E11,7.301759E10,5.9443446E10,1.8750956E9,8.0239575E9,1.967109E10,3.6048077E9,7.9947366E8,6.669875E8,1.1634811E9,5.0519716E9,1.8861875E8,4.073259E9,0E0,2.8463596E9,3.257344E7,8.165075E7,7.936627E7,6.514064E6,1.2594381E8,2.9833216E8,3.2487568E8,1.0809836E9,0E0,1.9519693E8,8.7679795E8,1.8225725E9,0E0,2.4484905E9,0E0,2.662912E6,2.3058752E7,7.185988E6,4.194035E7,0E0,5.873563E6,1.4743868E7,5.411731E7,1.0150912E8,1.8556109E8,6.816973E7,8.760448E6,4.6477E6,3.6397056E7,1.7940828E9,1.077248E7,0E0,0E0,9.327657E8,2.153218E9,0E0,0E0,1.4277018E8,0E0,0E0,0E0,0E0,0E0,0E0,0E0,0E0,0E0,0E0,0E0,0E0,0E0,0E0,0E0,0E0,0E0,0E0,0E0,0E0,0E0,0E0,0E0,0E0,0E0,0E0,0E0,0E0,0E0,0E0,0E0,0E0,0E0,0E0,0E0,0E0],"parents":[2147483647,0,0,1,1,2,2,3,3,4,4,5,5,6,6,7,7,8,8,9,9,10,10,11,11,12,12,14,14,15,15,16,16,17,17,18,18,19,19,20,20,21,21,22,22,24,24,25,25,26,26,28,28,30,30,31,31,32,32,33,33,35,35,36,36,37,37,38,38,39,39,40,40,41,41,42,42,43,43,44,44,45,45,48,48,49,49,52,52],"right_children":[2,4,6,8,10,12,14,16,18,20,22,24,26,-1,28,30,32,34,36,38,40,42,44,-1,46,48,50,-1,52,-1,54,56,58,60,-1,62,64,66,68,70,72,74,76,78,80,82,-1,-1,84,86,-1,-1,88,-1,-1,-1,-1,-1,-1,-1,-1,-1,-1,-1,-1,-1,-1,-1,-1,-1,-1,-1,-1,-1,-1,-1,-1,-1,-1,-1,-1,-1,-1,-1,-1,-1,-1,-1,-1],"split_conditions":[1.8222705E2,1.264819E2,2.3669296E2,9.960336E1,2E0,2E0,2E0,4.4420902E1,3E0,1.5133946E2,1.5133946E2,3.8160703E2,2.0259639E2,5.012819E2,1.1816871E-3,2.9299442E1,8.768709E1,2E0,3.6879836E4,2.1667699E2,2.6345345E1,3E0,3.400199E1,4.192003E2,1.990166E1,3.3448672E0,9.913452E-2,1.9717887E3,5.2658463E0,-7.7991394E1,3.937917E1,7.276604E1,2E0,8.306237E1,5.9040173E2,1.08143E2,1.1041691E1,7.9448536E-2,5.5951853E0,8.073744E0,4.5510262E-2,4.6423428E1,2E0,2.3012999E1,2.145371E1,2.5588112E0,6.918401E2,1.0453862E3,9.878569E0,2.0722914E1,1.3422633E3,1.4479558E3,8.644468E2,-7.062243E1,-6.3220303E1,-4.3488903E1,-2.6132278E1,5.3820423E1,-2.0588439E0,2.0306519E2,3.7328455E2,5.2504764E0,3.1657913E1,1.263647E2,1.6934952E1,1.7441603E2,4.1686188E2,3.3259982E2,4.8683005E2,9.9327484E2,6.699125E2,4.9932324E2,6.392566E2,6.7426544E2,1.7555696E2,-9.706183E0,9.584226E1,1.0638242E3,2.770597E2,2.0258231E3,9.1999115E2,4.876367E2,1.1853438E3,1.3595696E3,2.1396155E3,2.7905906E3,1.6896434E3,2.7660193E3,4.573272E3],"split_indices":[9,9,9,9,1,1,1,9,1,9,9,6,9,0,4,9,9,1,6,6,5,1,5,0,8,8,4,0,8,0,9,9,1,5,0,9,5,4,8,8,4,5,3,5,8,8,0,0,5,8,0,0,6,0,0,0,0,0,0,0,0,0,0,0,0,0,0,0,0,0,0,0,0,0,0,0,0,0,0,0,0,0,0,0,0,0,0,0,0],"split_type":[0,0,0,0,0,0,0,0,0,0,0,0,0,0,0,0,0,0,0,0,0,0,0,0,0,0,0,0,0,0,0,0,0,0,0,0,0,0,0,0,0,0,0,0,0,0,0,0,0,0,0,0,0,0,0,0,0,0,0,0,0,0,0,0,0,0,0,0,0,0,0,0,0,0,0,0,0,0,0,0,0,0,0,0,0,0,0,0,0],"sum_hessian":[1.2811E4,1.2571E4,2.4E2,1.2219E4,3.52E2,1.93E2,4.7E1,1.2067E4,1.52E2,2.99E2,5.3E1,4E1,1.53E2,1E0,4.6E1,1.0779E4,1.288E3,5.4E1,9.8E1,1.42E2,1.57E2,1.2E1,4.1E1,3E0,3.7E1,6.9E1,8.4E1,4E0,4.2E1,9.522E3,1.257E3,1.144E3,1.44E2,5.3E1,1E0,8.5E1,1.3E1,1.4E1,1.28E2,4.8E1,1.09E2,4E0,8E0,1.6E1,2.5E1,2.8E1,9E0,6E0,6.3E1,7.8E1,6E0,2E0,4E1,9.94E2,2.63E2,8.93E2,2.51E2,5E0,1.39E2,4.8E1,5E0,3.9E1,4.6E1,4E0,9E0,1E1,4E0,2.3E1,1.05E2,1.3E1,3.5E1,4.2E1,6.7E1,3E0,1E0,1E0,7E0,1.5E1,1E0,1.7E1,8E0,2E0,2.6E1,1.2E1,5.1E1,6.7E1,1.1E1,6E0,3.4E1],"tree_param":{"num_deleted":"0","num_feature":"11","num_nodes":"89","size_leaf_vector":"1"}},{"base_weights":[1.296966E1,-9.657509E2,4.812821E4,-1.3351968E3,1.2237174E4,3.6817617E4,6.6055484E4,-1.3706151E3,2.945702E3,8.229089E3,1.7570605E4,2.7520305E4,4.871817E4,5.104015E4,9.4960375E4,-1.459022E3,-6.0704596E2,5.239941E3,6.3868915E2,6.864305E3,1.3547212E4,1.5449713E4,3.492169E4,8.0797797E2,3.0492916E4,5.7097184E4,2.7246234E4,5.5233938E4,1.5758965E3,1.0324039E5,2.0936777E3,-1.4809774E3,-1.2907416E3,-8.4341095E2,-2.5457684E2,3.5036387E3,7.125877E3,2.713132E2,1.425367E3,8.0749434E3,4.313513E3,5.237235E2,8.8826514E2,1.8989639E4,1.0944307E4,1.0295616E3,2.244347E3,3.4434754E4,1.066935E3,3.02025E4,6.337993E4,6.391215E2,1.5483635E3,4.548775E4,3.255763E3,8.2537854E2,5.2970684E3,-7.420538E1,-7.031433E1,-6.663396E1,-5.5892464E1,-4.684951E1,-8.662502E0,-2.2788805E1,1.763191E1,7.8365814E1,2.1691768E2,4.6479987E2,1.9566913E2,7.1258936E0,4.4576843E1,2.696145E1,9.5156334E1,3.0389008E2,4.5733725E2,1.292668E2,2.5642117E2,7.8423444E2,1.2473005E3,4.1454654E2,7.163698E2,1.2072676E3,1.8980706E3,3.7667062E2,1.5858033E3,1.8176207E3,3.3655789E3,7.717313E2,2.3541582E3],"categories":[],"categories_nodes":[],"categories_segments":[],"categories_sizes":[],"default_left":[0,0,0,0,0,0,0,0,0,0,0,0,0,0,0,0,0,0,0,0,0,0,0,0,0,0,0,0,0,0,0,0,0,0,0,0,0,0,0,0,0,0,0,0,0,0,0,0,0,0,0,0,0,0,0,0,0,0,0,0,0,0,0,0,0,0,0,0,0,0,0,0,0,0,0,0,0,0,0,0,0,0,0,0,0,0,0,0,0],"id":6,"left_children":[1,3,5,7,9,11,13,15,17,19,21,23,25,27,29,31,33,35,37,39,41,43,45,-1,47,49,51,53,-1,55,-1,57,59,61,63,65,67,69,71,73,75,-1,-1,77,79,-1,-1,81,-1,83,85,-1,-1,87,-1,-1,-1,-1,-1,-1,-1,-1,-1,-1,-1,-1,-1,-1,-1,-1,-1,-1,-1,-1,-1,-1,-1,-1,-1,-1,-1,-1,-1,-1,-1,-1,-1,-1,-1],"loss_changes":[5.999906E11,6.0925E10,4.9071063E10,1.8459423E9,7.123542E9,1.6140894E10,3.7252792E10,8.1247846E8,5.2593715E8,1.3295933E9,4.7964365E9,2.5804145E9,1.0678452E10,3.6627087E9,9.742877E9,3.7984256E7,1.0409107E8,1.3876122E8,1.435261E7,4.5308672E8,3.19402E8,1.8814648E9,1.2178227E9,0E0,1.827201E9,6.196445E9,7.3438925E8,2.142208E9,0E0,4.5762806E9,0E0,1.4336E5,7.602688E6,4.680976E7,6.1735024E7,3.8456224E7,1.239657E8,2.748689E6,5.747558E6,1.7130547E8,6.1381696E7,0E0,0E0,1.0260869E9,4.1980928E8,0E0,0E0,8.2519245E8,0E0,1.384919E8,1.5910502E9,0E0,0E0,7.117046E8,0E0,0E0,0E0,0E0,0E0,0E0,0E0,0E0,0E0,0E0,0E0,0E0,0E0,0E0,0E0,0E0,0E0,0E0,0E0,0E0,0E0,0E0,0E0,0E0,0E0,0E0,0E0,0E0,0E0,0E0,0E0,0E0,0E0,0E0,0E0],"parents":[2147483647,0,0,1,1,2,2,3,3,4,4,5,5,6,6,7,7,8,8,9,9,10,10,11,11,12,12,13,13,14,14,15,15,16,16,17,17,18,18,19,19,20,20,21,21,22,22,24,24,25,25,26,26,27,27,29,29,31,31,32,32,33,33,34,34,35,35,36,36,37,37,38,38,39,39,40,40,43,43,44,44,47,47,49,49,50,50,53,53],"right_children":[2,4,6,8,10,12,14,16,18,20,22,24,26,28,30,32,34,36,38,40,42,44,46,-1,48,50,52,54,-1,56,-1,58,60,62,64,66,68,70,72,74,76,-1,-1,78,80,-1,-1,82,-1,84,86,-1,-1,88,-1,-1,-1,-1,-1,-1,-1,-1,-1,-1,-1,-1,-1,-1,-1,-1,-1,-1,-1,-1,-1,-1,-1,-1,-1,-1,-1,-1,-1,-1,-1,-1,-1,-1,-1],"split_conditions":[2.6974808E2,1.264819E2,3.2798322E2,1.08143E2,3E0,3E0,3E0,6.98022E1,3E0,1.7285806E2,1.8222705E2,2E0,5E0,2E0,5E0,4.5988617E1,3E0,3E0,3E0,2E0,2E0,4E0,2E0,8.0797797E2,2E0,2E0,2E0,3.5061023E2,1.5758965E3,2E0,2.0936777E3,3.7489918E1,6.144009E1,1.3604744E2,1.2256344E2,1.7593314E2,5E0,1.9093686E2,4.072552E2,2.1616754E2,2.1616754E2,5.237235E2,8.8826514E2,2.3389919E2,2.3389919E2,1.0295616E3,2.244347E3,2.894666E2,1.066935E3,8.015703E2,1.1025867E2,6.391215E2,1.5483635E3,2E0,3.255763E3,8.2537854E2,5.2970684E3,-7.420538E1,-7.031433E1,-6.663396E1,-5.5892464E1,-4.684951E1,-8.662502E0,-2.2788805E1,1.763191E1,7.8365814E1,2.1691768E2,4.6479987E2,1.9566913E2,7.1258936E0,4.4576843E1,2.696145E1,9.5156334E1,3.0389008E2,4.5733725E2,1.292668E2,2.5642117E2,7.8423444E2,1.2473005E3,4.1454654E2,7.163698E2,1.2072676E3,1.8980706E3,3.7667062E2,1.5858033E3,1.8176207E3,3.3655789E3,7.717313E2,2.3541582E3],"split_indices":[10,9,10,9,2,2,2,10,1,9,9,1,2,2,2,10,2,2,2,2,1,2,1,0,2,1,1,10,0,1,0,10,10,10,10,10,2,10,6,10,10,0,0,10,10,0,0,10,0,7,6,0,0,1,0,0,0,0,0,0,0,0,0,0,0,0,0,0,0,0,0,0,0,0,0,0,0,0,0,0,0,0,0,0,0,0,0,0,0],"split_type":[0,0,0,0,0,0,0,0,0,0,0,0,0,0,0,0,0,0,0,0,0,0,0,0,0,0,0,0,0,0,0,0,0,0,0,0,0,0,0,0,0,0,0,0,0,0,0,0,0,0,0,0,0,0,0,0,0,0,0,0,0,0,0,0,0,0,0,0,0,0,0,0,0,0,0,0,0,0,0,0,0,0,0,0,0,0,0,0,0],"sum_hessian":[1.2739E4,1.2486E4,2.53E2,1.2147E4,3.39E2,1.57E2,9.6E1,1.2048E4,9.9E1,1.95E2,1.44E2,9E1,6.7E1,6.5E1,3.1E1,1.0797E4,1.251E3,4.9E1,5E1,1.57E2,3.8E1,1.3E2,1.4E1,2E1,7E1,4.7E1,2E1,5.2E1,1.3E1,2.6E1,5E0,9.544E3,1.253E3,7.48E2,5.03E2,2.7E1,2.2E1,3.5E1,1.5E1,1.05E2,5.2E1,2.4E1,1.4E1,7.1E1,5.9E1,7E0,7E0,4.7E1,2.3E1,1E1,3.7E1,5E0,1.5E1,2.9E1,2.3E1,1E0,2.5E1,9.142E3,4.02E2,1.003E3,2.5E2,6.56E2,9.2E1,3.78E2,1.25E2,9E0,1.8E1,1.2E1,1E1,3E1,5E0,6E0,9E0,3.9E1,6.6E1,1.8E1,3.4E1,4.8E1,2.3E1,3.5E1,2.4E1,1.4E1,3.3E1,1E0,9E0,6E0,3.1E1,2E0,2.7E1],"tree_param":{"num_deleted":"0","num_feature":"11","num_nodes":"89","size_leaf_vector":"1"}},{"base_weights":[4.279929E1,-9.1585614E2,4.6500266E4,-1.2693136E3,1.1360825E4,3.4357953E4,6.5034766E4,-1.3110667E3,2.1266177E3,7.879164E3,1.6465705E4,2.5612566E4,4.6476547E4,4.843949E4,9.365292E4,-1.386862E3,-6.137818E2,4.487849E3,6.4056525E2,6.2064897E3,1.1207289E4,1.4167117E4,2.9663805E4,2.2444998E4,1.810516E3,6.42042E4,3.5239875E4,5.278938E4,1.5773368E3,5.2425054E3,2.702762E3,-7.044449E1,-1.2389556E3,-8.302574E2,-2.99023E2,2.685659E3,6.853958E3,7.71404E1,1.4391915E3,7.331022E3,4.119202E3,9.352639E3,1.726052E4,1.01519E4,1.753197E4,2.091609E4,2.0085432E3,7.834023E2,2.479033E4,6.5599195E4,8.0298065E2,1.017033E3,3.8686914E4,4.231999E4,3.1402056E3,-6.3698097E1,-5.2910255E1,-4.392234E1,-1.6087965E1,9.695057E-1,-3.2544582E1,1.724797E2,9.074808E1,4.5137238E2,1.732306E2,1.3805095E1,-1.16925955E1,9.982479E1,3.2662075E0,2.1299467E2,4.0957526E2,1.27020935E2,2.4756082E2,5.55598E2,4.014914E2,8.885221E2,2.5304085E2,6.481838E2,3.6423755E2,9.62999E2,5.518095E2,1.148951E3,3.1899915E2,1.4416831E3,9.0434924E2,1.3044602E3,3.4059856E3,2.2093865E3,1.5040284E3,8.7179706E2,2.230432E3],"categories":[],"categories_nodes":[],"categories_segments":[],"categories_sizes":[],"default_left":[0,0,0,0,0,0,0,0,0,0,0,0,0,0,0,0,0,0,0,0,0,0,0,0,0,0,0,0,0,0,0,0,0,0,0,0,0,0,0,0,0,0,0,0,0,0,0,0,0,0,0,0,0,0,0,0,0,0,0,0,0,0,0,0,0,0,0,0,0,0,0,0,0,0,0,0,0,0,0,0,0,0,0,0,0,0,0,0,0,0,0],"id":7,"left_children":[1,3,5,7,9,11,13,15,17,19,21,23,25,27,29,31,33,35,37,39,41,43,45,47,-1,49,51,53,-1,-1,-1,-1,55,57,59,61,63,65,67,69,71,73,75,77,79,81,-1,-1,83,85,-1,-1,87,89,-1,-1,-1,-1,-1,-1,-1,-1,-1,-1,-1,-1,-1,-1,-1,-1,-1,-1,-1,-1,-1,-1,-1,-1,-1,-1,-1,-1,-1,-1,-1,-1,-1,-1,-1,-1,-1],"loss_changes":[5.683308E11,5.42685E10,5.582894E10,1.7261076E9,6.090973E9,1.555474E10,4.3431035E10,6.33729E8,5.1644435E8,1.0994862E9,3.8572687E9,2.3427604E9,1.0685432E10,3.1844598E9,1.0294067E10,3.3538048E7,8.008595E7,2.2465088E8,4.128584E7,3.031076E8,6.13205E8,1.4703145E9,9.9803546E8,8.036475E8,0E0,5.583831E8,1.3701243E9,2.6894008E9,0E0,0E0,0E0,0E0,7.586304E6,1.6821312E7,5.4015692E7,1.6354432E7,1.4552435E8,3.4677192E6,2.8964752E7,2.0558643E8,5.572749E7,3.877171E7,3.380224E6,3.731461E8,5.170524E8,2.4322509E8,0E0,0E0,9.4209434E8,5.1327795E8,0E0,0E0,2.3308698E8,8.168284E8,0E0,0E0,0E0,0E0,0E0,0E0,0E0,0E0,0E0,0E0,0E0,0E0,0E0,0E0,0E0,0E0,0E0,0E0,0E0,0E0,0E0,0E0,0E0,0E0,0E0,0E0,0E0,0E0,0E0,0E0,0E0,0E0,0E0,0E0,0E0,0E0,0E0],"parents":[2147483647,0,0,1,1,2,2,3,3,4,4,5,5,6,6,7,7,8,8,9,9,10,10,11,11,12,12,13,13,14,14,15,15,16,16,17,17,18,18,19,19,20,20,21,21,22,22,23,23,25,25,26,26,27,27,32,32,33,33,34,34,35,35,36,36,37,37,38,38,39,39,40,40,41,41,42,42,43,43,44,44,45,45,48,48,49,49,52,52,53,53],"right_children":[2,4,6,8,10,12,14,16,18,20,22,24,26,28,30,32,34,36,38,40,42,44,46,48,-1,50,52,54,-1,-1,-1,-1,56,58,60,62,64,66,68,70,72,74,76,78,80,82,-1,-1,84,86,-1,-1,88,90,-1,-1,-1,-1,-1,-1,-1,-1,-1,-1,-1,-1,-1,-1,-1,-1,-1,-1,-1,-1,-1,-1,-1,-1,-1,-1,-1,-1,-1,-1,-1,-1,-1,-1,-1,-1,-1],"split_conditions":[2.6974808E2,1.264819E2,3.2798322E2,1.4914957E2,3E0,3E0,3E0,6.98022E1,3E0,1.6510701E2,1.7285806E2,2.1821957E2,4E0,2E0,5E0,4.2106003E1,3E0,3E0,3E0,2E0,2E0,2.24441E2,2E0,2E0,1.810516E3,4E0,2E0,3.5061023E2,1.5773368E3,5.2425054E3,2.702762E3,-7.044449E1,6.144009E1,1.3604744E2,4E0,2E0,5E0,2E0,5E0,2.042524E2,2.1616754E2,2.581851E1,3E0,4E0,5E0,5E0,2.0085432E3,7.834023E2,2E0,1.1025867E2,8.0298065E2,1.017033E3,5E0,2E0,3.1402056E3,-6.3698097E1,-5.2910255E1,-4.392234E1,-1.6087965E1,9.695057E-1,-3.2544582E1,1.724797E2,9.074808E1,4.5137238E2,1.732306E2,1.3805095E1,-1.16925955E1,9.982479E1,3.2662075E0,2.1299467E2,4.0957526E2,1.27020935E2,2.4756082E2,5.55598E2,4.014914E2,8.885221E2,2.5304085E2,6.481838E2,3.6423755E2,9.62999E2,5.518095E2,1.148951E3,3.1899915E2,1.4416831E3,9.0434924E2,1.3044602E3,3.4059856E3,2.2093865E3,1.5040284E3,8.7179706E2,2.230432E3],"split_indices":[10,9,10,10,2,2,2,10,1,9,9,9,2,2,2,10,2,2,2,2,1,10,1,1,0,3,1,10,0,0,0,0,10,10,2,2,2,2,2,10,10,5,3,2,2,2,0,0,2,6,0,0,2,1,0,0,0,0,0,0,0,0,0,0,0,0,0,0,0,0,0,0,0,0,0,0,0,0,0,0,0,0,0,0,0,0,0,0,0,0,0],"split_type":[0,0,0,0,0,0,0,0,0,0,0,0,0,0,0,0,0,0,0,0,0,0,0,0,0,0,0,0,0,0,0,0,0,0,0,0,0,0,0,0,0,0,0,0,0,0,0,0,0,0,0,0,0,0,0,0,0,0,0,0,0,0,0,0,0,0,0,0,0,0,0,0,0,0,0,0,0,0,0,0,0,0,0,0,0,0,0,0,0,0,0],"sum_hessian":[1.2759E4,1.2502E4,2.57E2,1.2153E4,3.49E2,1.57E2,1E2,1.2006E4,1.47E2,2.09E2,1.4E2,9.3E1,6.4E1,6.5E1,3.5E1,1.0828E4,1.178E3,5.6E1,9.1E1,1.41E2,6.8E1,1.21E2,1.9E1,7.4E1,1.9E1,2.3E1,4.1E1,5E1,1.5E1,2.6E1,9E0,9.417E3,1.411E3,6.97E2,4.81E2,3.3E1,2.3E1,5.4E1,3.7E1,9E1,5.1E1,5.4E1,1.4E1,5.7E1,6.4E1,1.2E1,7E0,2.1E1,5.3E1,2.2E1,1E0,9E0,3.2E1,2.7E1,2.3E1,1.177E3,2.34E2,6.36E2,6.1E1,2.53E2,2.28E2,1.6E1,1.7E1,1.3E1,1E1,3.3E1,2.1E1,2.6E1,1.1E1,2.1E1,6.9E1,1.9E1,3.2E1,2E1,3.4E1,1.3E1,1E0,2.7E1,3E1,4.9E1,1.5E1,1E1,2E0,3.1E1,2.2E1,2E0,2E1,1.7E1,1.5E1,3E0,2.4E1],"tree_param":{"num_deleted":"0","num_feature":"11","num_nodes":"91","size_leaf_vector":"1"}},{"base_weights":[3.872121E1,-8.5462177E2,4.4004305E4,-1.2008732E3,1.1125744E4,3.6952137E4,7.095988E4,-1.2413932E3,2.0099156E3,8.423057E3,1.6815342E4,2.8123303E4,5.0395645E4,5.5346996E4,9.5164E4,-1.3199558E3,-6.120272E2,4.487496E3,6.1317993E2,5.909741E3,1.2055787E4,1.2948371E4,2.4106775E4,2.2439705E4,3.935906E4,6.460804E4,3.9042094E4,2.9202715E3,1.5670038E3,5.147889E3,2.0098951E3,-6.69193E1,-1.1920327E3,-8.1485425E2,-3.2748453E2,3.2078403E3,6.128415E3,1.0309153E2,1.4651364E3,6.197692E3,2.038725E2,1.489796E4,8.073985E3,9.445148E3,1.7226959E4,1.7494594E4,2.9798191E4,6.9979736E2,2.5482516E4,2.116854E3,1.3694181E3,2.3835554E3,4.034132E3,9.673488E2,4.3197594E4,-6.2439083E1,-5.5065945E1,-4.3002377E1,-1.5085795E1,-2.5027206E1,9.334405E0,7.244226E1,2.0107408E2,4.1218985E2,2.089842E2,1.195224E0,4.256922E1,1.2224906E2,3.010802E1,3.5160327E2,2.1585262E2,2.8255537E1,-6.294629E0,7.6717523E2,9.560899E1,4.9091064E2,2.7886057E2,5.2647284E2,2.8381018E2,9.850845E2,4.2193033E2,1.1013256E3,5.3800134E2,1.8650956E3,8.658034E2,1.3958015E3,9.252913E2,2.4720112E3,1.7176426E3],"categories":[],"categories_nodes":[],"categories_segments":[],"categories_sizes":[],"default_left":[0,0,0,0,0,0,0,0,0,0,0,0,0,0,0,0,0,0,0,0,0,0,0,0,0,0,0,0,0,0,0,0,0,0,0,0,0,0,0,0,0,0,0,0,0,0,0,0,0,0,0,0,0,0,0,0,0,0,0,0,0,0,0,0,0,0,0,0,0,0,0,0,0,0,0,0,0,0,0,0,0,0,0,0,0,0,0,0,0],"id":8,"left_children":[1,3,5,7,9,11,13,15,17,19,21,23,25,27,29,31,33,35,37,39,41,43,45,47,49,51,53,-1,-1,-1,-1,-1,55,57,59,61,63,65,67,69,71,73,75,77,79,81,83,-1,85,-1,-1,-1,-1,-1,87,-1,-1,-1,-1,-1,-1,-1,-1,-1,-1,-1,-1,-1,-1,-1,-1,-1,-1,-1,-1,-1,-1,-1,-1,-1,-1,-1,-1,-1,-1,-1,-1,-1,-1],"loss_changes":[5.0489573E11,5.2276765E10,4.6042284E10,1.5957176E9,5.301895E9,2.291427E10,1.4383563E10,5.971743E8,5.2670867E8,2.1382615E9,2.8739768E9,7.163093E9,1.0386473E10,6.659768E8,4.0007926E9,2.3752704E7,7.72993E7,9.583053E7,4.287169E7,2.3697254E8,9.887775E8,9.764403E8,9.0873446E8,1.852928E9,3.020636E8,5.4104064E9,3.010896E9,0E0,0E0,0E0,0E0,0E0,5.641472E6,1.7921792E7,5.0012624E7,4.1402784E7,6.035661E7,3.7127195E6,2.981428E7,1.8618624E8,1.02413325E6,2.9466214E8,1.3250432E8,1.2004736E8,5.5145574E8,3.7340365E8,1.1336622E9,0E0,5.3601894E8,0E0,0E0,0E0,0E0,0E0,3.9972864E8,0E0,0E0,0E0,0E0,0E0,0E0,0E0,0E0,0E0,0E0,0E0,0E0,0E0,0E0,0E0,0E0,0E0,0E0,0E0,0E0,0E0,0E0,0E0,0E0,0E0,0E0,0E0,0E0,0E0,0E0,0E0,0E0,0E0,0E0],"parents":[2147483647,0,0,1,1,2,2,3,3,4,4,5,5,6,6,7,7,8,8,9,9,10,10,11,11,12,12,13,13,14,14,15,15,16,16,17,17,18,18,19,19,20,20,21,21,22,22,23,23,24,24,25,25,26,26,32,32,33,33,34,34,35,35,36,36,37,37,38,38,39,39,40,40,41,41,42,42,43,43,44,44,45,45,46,46,48,48,54,54],"right_children":[2,4,6,8,10,12,14,16,18,20,22,24,26,28,30,32,34,36,38,40,42,44,46,48,50,52,54,-1,-1,-1,-1,-1,56,58,60,62,64,66,68,70,72,74,76,78,80,82,84,-1,86,-1,-1,-1,-1,-1,88,-1,-1,-1,-1,-1,-1,-1,-1,-1,-1,-1,-1,-1,-1,-1,-1,-1,-1,-1,-1,-1,-1,-1,-1,-1,-1,-1,-1,-1,-1,-1,-1,-1,-1],"split_conditions":[1.8222705E2,1.264819E2,2.3669296E2,1.4914957E2,2.4442912E2,3E0,3E0,6.701837E1,3E0,3E0,2E0,3.2798322E2,4E0,2E0,5E0,4.2106003E1,3E0,3E0,3E0,3E0,4E0,3E0,3E0,2E0,2E0,3.0476447E2,2E0,2.9202715E3,1.5670038E3,5.147889E3,2.0098951E3,-6.69193E1,3E0,1.3604744E2,1.1900999E2,1.7593314E2,4E0,1.9093686E2,4E0,2E0,2E0,3E0,5E0,2E0,5E0,2E0,5E0,6.9979736E2,2E0,2.116854E3,1.3694181E3,2.3835554E3,4.034132E3,9.673488E2,5E0,-6.2439083E1,-5.5065945E1,-4.3002377E1,-1.5085795E1,-2.5027206E1,9.334405E0,7.244226E1,2.0107408E2,4.1218985E2,2.089842E2,1.195224E0,4.256922E1,1.2224906E2,3.010802E1,3.5160327E2,2.1585262E2,2.8255537E1,-6.294629E0,7.6717523E2,9.560899E1,4.9091064E2,2.7886057E2,5.2647284E2,2.8381018E2,9.850845E2,4.2193033E2,1.1013256E3,5.3800134E2,1.8650956E3,8.658034E2,1.3958015E3,9.252913E2,2.4720112E3,1.7176426E3],"split_indices":[9,9,9,10,10,2,2,10,1,2,1,10,2,2,2,10,2,2,2,1,2,2,2,1,2,10,1,0,0,0,0,0,2,10,10,10,2,10,2,2,2,1,2,2,2,2,2,0,2,0,0,0,0,0,2,0,0,0,0,0,0,0,0,0,0,0,0,0,0,0,0,0,0,0,0,0,0,0,0,0,0,0,0,0,0,0,0,0,0],"split_type":[0,0,0,0,0,0,0,0,0,0,0,0,0,0,0,0,0,0,0,0,0,0,0,0,0,0,0,0,0,0,0,0,0,0,0,0,0,0,0,0,0,0,0,0,0,0,0,0,0,0,0,0,0,0,0,0,0,0,0,0,0,0,0,0,0,0,0,0,0,0,0,0,0,0,0,0,0,0,0,0,0,0,0,0,0,0,0,0,0],"sum_hessian":[1.2853E4,1.2598E4,2.55E2,1.2245E4,3.53E2,2.04E2,5.1E1,1.2093E4,1.52E2,2.41E2,1.12E2,1.25E2,7.9E1,3.3E1,1.8E1,1.075E4,1.343E3,5.4E1,9.8E1,1.44E2,9.7E1,7.5E1,3.7E1,8.5E1,4E1,3.3E1,4.6E1,2.8E1,5E0,1.5E1,3E0,9.388E3,1.362E3,7.83E2,5.6E2,3.2E1,2.2E1,6.2E1,3.6E1,1.37E2,7E0,5.5E1,4.2E1,4.3E1,3.2E1,1.9E1,1.8E1,2.4E1,6.1E1,3E1,1E1,1.8E1,1.5E1,9E0,3.7E1,8.3E2,5.32E2,7.19E2,6.4E1,4.19E2,1.41E2,1.1E1,2.1E1,9E0,1.3E1,5.7E1,5E0,1.6E1,2E1,9.3E1,4.4E1,3E0,4E0,5.3E1,2E0,2.3E1,1.9E1,3.2E1,1.1E1,2.4E1,8E0,1E1,9E0,1E1,8E0,4.3E1,1.8E1,1.9E1,1.8E1],"tree_param":{"num_deleted":"0","num_feature":"11","num_nodes":"89","size_leaf_vector":"1"}},{"base_weights":[5.2152428E1,-7.9829156E2,4.2342207E4,-1.1446967E3,1.1066134E4,3.2698332E4,5.8582223E4,-1.1758441E3,2.360763E3,7.623529E3,1.5503442E4,2.249692E4,4.4995953E4,4.035235E4,7.345287E4,-1.2547599E3,-5.401654E2,4.242567E3,7.260008E2,6.4316875E3,1.3568418E4,1.1720124E4,2.114134E4,1.2391341E4,2.5584146E4,4.7882152E4,1.4106903E3,8.674432E2,4.4982324E4,8.972278E4,5.7464977E4,-6.3587574E1,-1.1395481E3,-6.495154E2,9.758335E1,2.73524E3,5.7615366E3,2.3168451E2,1.6783333E3,5.0871694E3,7.933061E3,9.7735376E2,1.6920729E4,1.3921331E4,8.734447E3,1.653794E4,3.044686E4,6.906293E2,8.645785E3,2.8486895E4,1.9075486E4,3.8281164E4,5.6207105E4,4.98184E4,1.091438E3,8.98692E2,4.6083555E3,6.1274598E4,1.3842898E3,-5.9203175E1,-5.337602E1,-4.1124012E1,-2.038348E1,7.493078E1,3.334765E-1,1.8526656E2,9.183596E1,3.6835474E2,1.5971613E2,1.9728924E1,-3.3055313E0,1.0208059E2,9.008757E0,2.8248264E2,1.8588159E2,4.419537E2,2.6714044E2,1.5317216E2,1.2085314E1,1.0033888E3,5.78843E2,7.0862714E2,2.1458593E1,2.5983566E2,5.536874E2,9.178034E2,3.8149448E2,1.7832291E3,8.203625E2,1.2736326E2,4.544846E2,9.637492E2,1.5284078E3,9.8500354E2,4.0683496E2,9.369453E2,1.9852865E3,3.7465485E2,2.8814258E3,2.5290935E3,7.1102924E2,6.494976E2,3.1404578E3],"categories":[],"categories_nodes":[],"categories_segments":[],"categories_sizes":[],"default_left":[0,0,0,0,0,0,0,0,0,0,0,0,0,0,0,0,0,0,0,0,0,0,0,0,0,0,0,0,0,0,0,0,0,0,0,0,0,0,0,0,0,0,0,0,0,0,0,0,0,0,0,0,0,0,0,0,0,0,0,0,0,0,0,0,0,0,0,0,0,0,0,0,0,0,0,0,0,0,0,0,0,0,0,0,0,0,0,0,0,0,0,0,0,0,0,0,0,0,0,0,0,0,0],"id":9,"left_children":[1,3,5,7,9,11,13,15,17,19,21,23,25,27,29,31,33,35,37,39,41,43,45,47,49,51,-1,-1,53,55,57,-1,59,61,63,65,67,69,71,73,75,77,79,81,83,85,87,-1,89,91,93,95,97,99,-1,-1,-1,101,-1,-1,-1,-1,-1,-1,-1,-1,-1,-1,-1,-1,-1,-1,-1,-1,-1,-1,-1,-1,-1,-1,-1,-1,-1,-1,-1,-1,-1,-1,-1,-1,-1,-1,-1,-1,-1,-1,-1,-1,-1,-1,-1,-1,-1],"loss_changes":[4.615768E11,5.1719283E10,3.7708464E10,1.3375775E9,5.335306E9,1.918568E10,2.2247375E10,6.0722074E8,3.291605E8,1.3510605E9,3.0583644E9,2.4908145E9,2.1365064E9,3.9058555E9,7.8501806E9,1.9652608E7,9.3512E7,9.872E7,2.738561E7,3.048279E8,1.3763645E9,5.027543E8,2.109528E9,3.016448E6,7.4132275E8,2.6439844E9,0E0,0E0,2.943533E9,2.377089E9,1.4800896E9,0E0,3.208832E6,4.75192E7,2.5082526E7,1.6728816E7,7.539053E7,1.9664468E6,1.0517128E7,5.063859E7,1.381719E8,1.1536559E7,2.0493056E8,1.7355469E8,2.9831347E8,5.56372E8,8.066847E8,0E0,1.210752E6,2.7355546E8,3.679232E6,1.1898061E8,1.6454697E9,6.885376E7,0E0,0E0,0E0,9.6239616E8,0E0,0E0,0E0,0E0,0E0,0E0,0E0,0E0,0E0,0E0,0E0,0E0,0E0,0E0,0E0,0E0,0E0,0E0,0E0,0E0,0E0,0E0,0E0,0E0,0E0,0E0,0E0,0E0,0E0,0E0,0E0,0E0,0E0,0E0,0E0,0E0,0E0,0E0,0E0,0E0,0E0,0E0,0E0,0E0,0E0],"parents":[2147483647,0,0,1,1,2,2,3,3,4,4,5,5,6,6,7,7,8,8,9,9,10,10,11,11,12,12,13,13,14,14,15,15,16,16,17,17,18,18,19,19,20,20,21,21,22,22,23,23,24,24,25,25,28,28,29,29,30,30,32,32,33,33,34,34,35,35,36,36,37,37,38,38,39,39,40,40,41,41,42,42,43,43,44,44,45,45,46,46,48,48,49,49,50,50,51,51,52,52,53,53,57,57],"right_children":[2,4,6,8,10,12,14,16,18,20,22,24,26,28,30,32,34,36,38,40,42,44,46,48,50,52,-1,-1,54,56,58,-1,60,62,64,66,68,70,72,74,76,78,80,82,84,86,88,-1,90,92,94,96,98,100,-1,-1,-1,102,-1,-1,-1,-1,-1,-1,-1,-1,-1,-1,-1,-1,-1,-1,-1,-1,-1,-1,-1,-1,-1,-1,-1,-1,-1,-1,-1,-1,-1,-1,-1,-1,-1,-1,-1,-1,-1,-1,-1,-1,-1,-1,-1,-1,-1],"split_conditions":[1.8222705E2,1.264819E2,3E0,1.08143E2,3E0,2.1821957E2,2.0259639E2,4.4420902E1,2E0,2E0,1.590036E2,2E0,2E0,2E0,4E0,2.719898E1,8.768709E1,3E0,3E0,1.590036E2,1.439478E2,4E0,2E0,2E0,2E0,2.3669296E2,1.4106903E3,8.674432E2,5E0,2E0,8.101813E-2,-6.3587574E1,3E0,3E0,2E0,3.940683E-2,5E0,2E0,5E0,2E0,2E0,3E0,2E0,3E0,1.439478E2,5E0,5E0,6.906293E2,2E0,1.4021883E-2,8.644021E1,2E0,2E0,6.627624E-1,1.091438E3,8.98692E2,4.6083555E3,2E0,1.3842898E3,-5.9203175E1,-5.337602E1,-4.1124012E1,-2.038348E1,7.493078E1,3.334765E-1,1.8526656E2,9.183596E1,3.6835474E2,1.5971613E2,1.9728924E1,-3.3055313E0,1.0208059E2,9.008757E0,2.8248264E2,1.8588159E2,4.419537E2,2.6714044E2,1.5317216E2,1.2085314E1,1.0033888E3,5.78843E2,7.0862714E2,2.1458593E1,2.5983566E2,5.536874E2,9.178034E2,3.8149448E2,1.7832291E3,8.203625E2,1.2736326E2,4.544846E2,9.637492E2,1.5284078E3,9.8500354E2,4.0683496E2,9.369453E2,1.9852865E3,3.7465485E2,2.8814258E3,2.5290935E3,7.1102924E2,6.494976E2,3.1404578E3],"split_indices":[9,9,2,9,2,9,9,9,1,1,9,1,2,1,2,9,9,2,2,9,9,2,1,2,2,9,0,0,2,1,4,0,2,2,1,4,2,2,2,2,2,1,2,1,9,2,2,0,3,4,5,1,1,4,0,0,0,1,0,0,0,0,0,0,0,0,0,0,0,0,0,0,0,0,0,0,0,0,0,0,0,0,0,0,0,0,0,0,0,0,0,0,0,0,0,0,0,0,0,0,0,0,0],"split_type":[0,0,0,0,0,0,0,0,0,0,0,0,0,0,0,0,0,0,0,0,0,0,0,0,0,0,0,0,0,0,0,0,0,0,0,0,0,0,0,0,0,0,0,0,0,0,0,0,0,0,0,0,0,0,0,0,0,0,0,0,0,0,0,0,0,0,0,0,0,0,0,0,0,0,0,0,0,0,0,0,0,0,0,0,0,0,0,0,0,0,0,0,0,0,0,0,0,0,0,0,0,0,0],"sum_hessian":[1.2832E4,1.258E4,2.52E2,1.2224E4,3.56E2,1.6E2,9.2E1,1.2117E4,1.07E2,2.02E2,1.54E2,8.9E1,7.1E1,4.3E1,4.9E1,1.0778E4,1.339E3,4.9E1,5.8E1,1.7E2,3.2E1,9.4E1,6E1,2.2E1,6.7E1,5.9E1,1.2E1,8E0,3.5E1,2.2E1,2.7E1,9.384E3,1.394E3,1.143E3,1.96E2,2.6E1,2.3E1,3.9E1,1.9E1,9.2E1,7.8E1,7E0,2.5E1,5.2E1,4.2E1,4.2E1,1.8E1,1.4E1,8E0,4.4E1,2.3E1,3E1,2.9E1,2.8E1,7E0,1E0,2.1E1,2.3E1,4E0,8.52E2,5.42E2,6.65E2,4.78E2,1.1E1,1.85E2,1.1E1,1.5E1,1.3E1,1E1,2.5E1,1.4E1,1.5E1,4E0,6.3E1,2.9E1,5.6E1,2.2E1,1E0,6E0,1.4E1,1.1E1,5.1E1,1E0,1.8E1,2.4E1,3.4E1,8E0,1.2E1,6E0,1E0,7E0,1E1,3.4E1,2.1E1,2E0,3E0,2.7E1,1E0,2.8E1,2.7E1,1E0,1E0,2.2E1],"tree_param":{"num_deleted":"0","num_feature":"11","num_nodes":"103","size_leaf_vector":"1"}},{"base_weights":[4.139354E1,-7.5662494E2,4.0672043E4,-1.085576E3,1.0426153E4,3.002341E4,5.6447293E4,-1.1232278E3,1.8020543E3,8.1750923E3,1.5845331E4,2.1552506E4,3.4211812E4,5.318425E4,9.761653E4,-1.1891913E3,-5.2569434E2,9.1723413E2,3.7335513E3,6.6944336E3,1.0260524E4,2.9394959E4,1.4564481E4,1.1181579E4,2.2662156E4,3.1048693E4,4.0667215E4,5.478859E4,1.2823446E3,5.4666577E3,9.758354E2,-1.2052075E3,-1.0396926E3,-6.4071124E2,-1.7381627E2,6.772727E2,1.8905356E3,5.913818E3,2.5977332E3,7.001799E3,2.525024E3,9.727216E3,1.7350035E4,5.9721533E2,1.6610563E3,1.2646807E4,1.9581514E4,5.976762E2,1.6374771E2,2.7045053E4,1.710339E4,2.4967344E4,3.4508465E4,3.1380105E3,3.462193E4,4.620401E4,6.2127973E4,-6.046369E1,-5.7206276E1,-5.379571E1,-4.58817E1,-3.6299206E1,-2.746585E1,-1.43718405E1,1.9354279E0,6.8498634E1,2.6485123E1,1.4129558E2,5.48771E1,1.6861198E2,5.415421E2,8.7045975E1,1.8487007E2,2.706495E2,3.8105814E2,1.8203325E2,4.013028E1,2.9477435E2,5.1444824E2,1.090053E3,2.8159952E2,6.879782E2,5.120692E2,6.201927E2,1.1769849E3,8.5701526E2,1.5463079E3,5.790682E2,9.913012E2,8.5525165E2,1.410257E3,9.1787225E2,1.8097444E3,1.7942115E3,6.7018207E2,1.0293514E3,2.3788152E3,3.5841035E3,2.2172637E3],"categories":[],"categories_nodes":[],"categories_segments":[],"categories_sizes":[],"default_left":[0,0,0,0,0,0,0,0,0,0,0,0,0,0,0,0,0,0,0,0,0,0,0,0,0,0,0,0,0,0,0,0,0,0,0,0,0,0,0,0,0,0,0,0,0,0,0,0,0,0,0,0,0,0,0,0,0,0,0,0,0,0,0,0,0,0,0,0,0,0,0,0,0,0,0,0,0,0,0,0,0,0,0,0,0,0,0,0,0,0,0,0,0,0,0,0,0,0,0],"id":10,"left_children":[1,3,5,7,9,11,13,15,17,19,21,23,25,27,29,31,33,35,37,39,41,43,45,47,49,51,53,55,-1,-1,-1,57,59,61,63,65,67,69,71,73,75,77,79,-1,-1,81,83,-1,-1,85,87,89,91,-1,93,95,97,-1,-1,-1,-1,-1,-1,-1,-1,-1,-1,-1,-1,-1,-1,-1,-1,-1,-1,-1,-1,-1,-1,-1,-1,-1,-1,-1,-1,-1,-1,-1,-1,-1,-1,-1,-1,-1,-1,-1,-1,-1,-1],"loss_changes":[4.1408535E11,4.6085636E10,3.9629554E10,1.3249812E9,4.2376684E9,4.5490913E9,7.973339E9,4.72832E8,2.648928E8,7.187036E8,1.3768028E9,3.4502246E8,7.384105E8,2.7035238E9,3.3565737E9,2.4646656E7,4.8293024E7,2.4177064E7,1.0598035E8,1.7711309E8,2.2444544E8,1.3734963E8,6.855946E8,3.577088E6,6.581596E8,6.112256E8,1.7003192E9,2.610905E9,0E0,0E0,0E0,1.041408E6,3.672704E6,6.623104E6,7.158693E6,8.372072E6,1.2475136E7,1.6342778E8,2.5598288E7,9.749862E7,2.01372E7,1.5243571E8,1.9016051E8,0E0,0E0,5.447885E7,4.1827942E8,0E0,0E0,3.9250944E8,1.1617997E8,2.5578906E8,4.795269E8,0E0,1.8861466E8,5.673124E8,4.296737E9,0E0,0E0,0E0,0E0,0E0,0E0,0E0,0E0,0E0,0E0,0E0,0E0,0E0,0E0,0E0,0E0,0E0,0E0,0E0,0E0,0E0,0E0,0E0,0E0,0E0,0E0,0E0,0E0,0E0,0E0,0E0,0E0,0E0,0E0,0E0,0E0,0E0,0E0,0E0,0E0,0E0,0E0],"parents":[2147483647,0,0,1,1,2,2,3,3,4,4,5,5,6,6,7,7,8,8,9,9,10,10,11,11,12,12,13,13,14,14,15,15,16,16,17,17,18,18,19,19,20,20,21,21,22,22,23,23,24,24,25,25,26,26,27,27,31,31,32,32,33,33,34,34,35,35,36,36,37,37,38,38,39,39,40,40,41,41,42,42,45,45,46,46,49,49,50,50,51,51,52,52,54,54,55,55,56,56],"right_children":[2,4,6,8,10,12,14,16,18,20,22,24,26,28,30,32,34,36,38,40,42,44,46,48,50,52,54,56,-1,-1,-1,58,60,62,64,66,68,70,72,74,76,78,80,-1,-1,82,84,-1,-1,86,88,90,92,-1,94,96,98,-1,-1,-1,-1,-1,-1,-1,-1,-1,-1,-1,-1,-1,-1,-1,-1,-1,-1,-1,-1,-1,-1,-1,-1,-1,-1,-1,-1,-1,-1,-1,-1,-1,-1,-1,-1,-1,-1,-1,-1,-1,-1],"split_conditions":[2.6974808E2,1.9093686E2,3.2798322E2,1.4914957E2,2.4442912E2,2.894666E2,2.3748178E1,6.98022E1,1.7593314E2,2.24441E2,1.7627434E2,3.2512789E0,2.1821957E2,9.799153E-2,3.5877813E-2,4.874008E1,1.1900999E2,1.1523316E2,1.0291578E1,3.5203113E4,1.3787091E-1,7.174669E0,1.8222705E2,6.621927E1,1.5705175E1,1.7002804E1,2.5098642E-2,1.5315251E3,1.2823446E3,5.4666577E3,9.758354E2,2.486655E1,6.144009E1,8.060878E1,1.3604744E2,3.8727423E2,6.5103625E2,8.624068E0,1.264819E2,1.359267E2,1.0483361E1,4.2846327E0,9.6494385E1,5.9721533E2,1.6610563E3,6.2483583E-2,2.1453228E-2,5.976762E2,1.6374771E2,1.9411924E1,1.882864E1,1.8127268E-2,3.6028705E0,3.1380105E3,8.306237E1,1.1816871E-3,3.5396625E4,-6.046369E1,-5.7206276E1,-5.379571E1,-4.58817E1,-3.6299206E1,-2.746585E1,-1.43718405E1,1.9354279E0,6.8498634E1,2.6485123E1,1.4129558E2,5.48771E1,1.6861198E2,5.415421E2,8.7045975E1,1.8487007E2,2.706495E2,3.8105814E2,1.8203325E2,4.013028E1,2.9477435E2,5.1444824E2,1.090053E3,2.8159952E2,6.879782E2,5.120692E2,6.201927E2,1.1769849E3,8.5701526E2,1.5463079E3,5.790682E2,9.913012E2,8.5525165E2,1.410257E3,9.1787225E2,1.8097444E3,1.7942115E3,6.7018207E2,1.0293514E3,2.3788152E3,3.5841035E3,2.2172637E3],"split_indices":[10,10,10,10,10,10,8,10,10,10,6,8,9,4,4,10,10,9,8,6,4,5,9,5,8,5,4,7,0,0,0,9,10,10,10,6,6,8,9,9,5,8,5,0,0,4,4,0,0,5,8,4,8,0,5,4,6,0,0,0,0,0,0,0,0,0,0,0,0,0,0,0,0,0,0,0,0,0,0,0,0,0,0,0,0,0,0,0,0,0,0,0,0,0,0,0,0,0,0],"split_type":[0,0,0,0,0,0,0,0,0,0,0,0,0,0,0,0,0,0,0,0,0,0,0,0,0,0,0,0,0,0,0,0,0,0,0,0,0,0,0,0,0,0,0,0,0,0,0,0,0,0,0,0,0,0,0,0,0,0,0,0,0,0,0,0,0,0,0,0,0,0,0,0,0,0,0,0,0,0,0,0,0,0,0,0,0,0,0,0,0,0,0,0,0,0,0,0,0,0,0],"sum_hessian":[1.2769E4,1.2524E4,2.45E2,1.2167E4,3.57E2,1.48E2,9.7E1,1.2011E4,1.56E2,2.54E2,1.03E2,5.1E1,9.7E1,9.2E1,5E0,1.0816E4,1.195E3,1.08E2,4.8E1,1.51E2,1.03E2,7E0,9.6E1,6E0,4.5E1,6.9E1,2.8E1,8.6E1,6E0,4E0,1E0,9.763E3,1.053E3,9E2,2.95E2,8.8E1,2E1,1.5E1,3.3E1,1.4E2,1.1E1,9.8E1,5E0,2E0,5E0,7.2E1,2.4E1,5E0,1E0,2.3E1,2.2E1,2.8E1,4.1E1,4E0,2.4E1,4.3E1,4.3E1,9.136E3,6.27E2,8.06E2,2.47E2,4.62E2,4.38E2,1.92E2,1.03E2,1.4E1,7.4E1,8E0,1.2E1,1.1E1,4E0,2E1,1.3E1,4.2E1,9.8E1,6E0,5E0,1.4E1,8.4E1,3E0,2E0,4.6E1,2.6E1,1E1,1.4E1,8E0,1.5E1,9E0,1.3E1,1E1,1.8E1,5E0,3.6E1,2.2E1,2E0,3E0,4E1,2.6E1,1.7E1],"tree_param":{"num_deleted":"0","num_feature":"11","num_nodes":"99","size_leaf_vector":"1"}},{"base_weights":[5.3621502E1,-7.4122565E2,3.796221E4,-1.0357113E3,9.683666E3,3.1272871E4,6.2249875E4,-1.068041E3,1.4931014E3,7.4717485E3,1.5126817E4,2.3457992E4,3.8364027E4,5.7640613E4,5.3880073E3,-1.1293463E3,-5.0387637E2,3.4563042E3,4.092475E2,4.8550015E3,8.20968E3,1.1800532E4,2.4012137E4,1.5375352E4,2.6162738E4,1.9035584E4,3.971995E4,6.151798E4,1.4070336E3,-1.1458932E3,-9.9740063E2,-6.008037E2,-2.1270457E2,2.6691458E3,4.6036494E3,1.3188933E3,3.2747714E2,5.455112E3,1.0482905E3,6.9946743E3,9.376637E3,1.3698257E4,9.642208E3,6.1751324E2,2.6893186E4,1.6871307E4,4.7632755E2,2.763192E4,8.5151654E2,4.9147128E2,1.1000212E3,4.040745E4,1.85759E4,6.4563215E4,2.3634404E4,-5.758212E1,-5.575254E1,-5.1434113E1,-4.2080288E1,-3.5927353E1,-2.6175953E1,5.010113E1,-1.226841E1,7.205708E1,1.5193977E2,-7.2836304E0,2.4241995E2,2.3911858E1,1.0199951E2,2.079399E1,-1.2766512E1,2.8136854E1,2.7726562E2,1.02954094E2,2.326692E1,3.6288568E2,1.2691778E2,5.737987E2,4.140161E2,2.4116508E2,7.16974E2,5.671249E2,2.958624E2,1.5033783E3,5.6782684E2,2.008579E2,8.6565784E2,4.7111435E2,1.4192683E3,1.2271732E3,2.0785366E3,1.0355785E3,2.5083043E2,2.0646619E3,3.5744133E3,3.098569E2,1.3222219E3],"categories":[],"categories_nodes":[],"categories_segments":[],"categories_sizes":[],"default_left":[0,0,0,0,0,0,0,0,0,0,0,0,0,0,0,0,0,0,0,0,0,0,0,0,0,0,0,0,0,0,0,0,0,0,0,0,0,0,0,0,0,0,0,0,0,0,0,0,0,0,0,0,0,0,0,0,0,0,0,0,0,0,0,0,0,0,0,0,0,0,0,0,0,0,0,0,0,0,0,0,0,0,0,0,0,0,0,0,0,0,0,0,0,0,0,0,0],"id":11,"left_children":[1,3,5,7,9,11,13,15,17,19,21,23,25,27,-1,29,31,33,35,37,39,41,43,45,47,49,51,53,-1,55,57,59,61,63,65,67,69,71,73,75,77,79,81,-1,83,85,-1,87,-1,-1,-1,89,91,93,95,-1,-1,-1,-1,-1,-1,-1,-1,-1,-1,-1,-1,-1,-1,-1,-1,-1,-1,-1,-1,-1,-1,-1,-1,-1,-1,-1,-1,-1,-1,-1,-1,-1,-1,-1,-1,-1,-1,-1,-1,-1,-1],"loss_changes":[3.8733886E11,3.8664167E10,4.0944927E10,1.0027735E9,4.0527462E9,1.0682122E10,5.535695E9,4.1764966E8,3.283984E8,4.3902464E8,2.6426E9,1.8276106E9,2.0743455E9,4.331094E9,0E0,2.2667264E7,3.337232E7,3.7385024E7,7.080682E6,1.2449498E8,2.0664218E8,1.710162E8,5.4142054E8,8.426138E7,5.3570355E8,2.94016E7,7.030538E8,3.7808538E9,0E0,4.34176E5,5.094528E6,7.722624E6,1.2069727E7,1.1508288E7,2.5116576E7,3.873957E6,4.949229E6,1.8502912E7,4.345016E6,9.645107E7,1.2362138E8,1.4139648E8,1.7355674E8,0E0,6.4492134E8,4.9721856E7,0E0,5.96906E8,0E0,0E0,0E0,7.513211E8,4.088909E7,3.816145E9,8.111642E7,0E0,0E0,0E0,0E0,0E0,0E0,0E0,0E0,0E0,0E0,0E0,0E0,0E0,0E0,0E0,0E0,0E0,0E0,0E0,0E0,0E0,0E0,0E0,0E0,0E0,0E0,0E0,0E0,0E0,0E0,0E0,0E0,0E0,0E0,0E0,0E0,0E0,0E0,0E0,0E0,0E0,0E0],"parents":[2147483647,0,0,1,1,2,2,3,3,4,4,5,5,6,6,7,7,8,8,9,9,10,10,11,11,12,12,13,13,15,15,16,16,17,17,18,18,19,19,20,20,21,21,22,22,23,23,24,24,25,25,26,26,27,27,29,29,30,30,31,31,32,32,33,33,34,34,35,35,36,36,37,37,38,38,39,39,40,40,41,41,42,42,44,44,45,45,47,47,51,51,52,52,53,53,54,54],"right_children":[2,4,6,8,10,12,14,16,18,20,22,24,26,28,-1,30,32,34,36,38,40,42,44,46,48,50,52,54,-1,56,58,60,62,64,66,68,70,72,74,76,78,80,82,-1,84,86,-1,88,-1,-1,-1,90,92,94,96,-1,-1,-1,-1,-1,-1,-1,-1,-1,-1,-1,-1,-1,-1,-1,-1,-1,-1,-1,-1,-1,-1,-1,-1,-1,-1,-1,-1,-1,-1,-1,-1,-1,-1,-1,-1,-1,-1,-1,-1,-1,-1],"split_conditions":[2.6974808E2,1.9093686E2,2.3669296E2,1.4914957E2,2.4442912E2,3.0476447E2,2.3839226E1,6.98022E1,2E0,1.359267E2,2E0,2E0,2E0,2.0722914E1,5.3880073E3,4.683032E1,1.1900999E2,1.264819E2,3.83664E0,2E0,2.24441E2,2.534693E1,3.0537523E1,4.6423428E1,2.027054E1,3.582054E4,8.912832E1,3.6046023E4,1.4070336E3,3.0826641E1,2E0,7.789815E1,3E0,1.08143E2,4.94225E2,8.073744E0,8.833706E1,1.1523316E2,3.5300227E4,3.534865E4,6.939162E2,1.0393073E3,9.423051E2,6.1751324E2,2.2074749E1,2.3737493E0,4.7632755E2,6.539642E2,8.5151654E2,4.9147128E2,1.1000212E3,2.9476633E0,7.436146E2,1.3307836E3,2E0,-5.758212E1,-5.575254E1,-5.1434113E1,-4.2080288E1,-3.5927353E1,-2.6175953E1,5.010113E1,-1.226841E1,7.205708E1,1.5193977E2,-7.2836304E0,2.4241995E2,2.3911858E1,1.0199951E2,2.079399E1,-1.2766512E1,2.8136854E1,2.7726562E2,1.02954094E2,2.326692E1,3.6288568E2,1.2691778E2,5.737987E2,4.140161E2,2.4116508E2,7.16974E2,5.671249E2,2.958624E2,1.5033783E3,5.6782684E2,2.008579E2,8.6565784E2,4.7111435E2,1.4192683E3,1.2271732E3,2.0785366E3,1.0355785E3,2.5083043E2,2.0646619E3,3.5744133E3,3.098569E2,1.3222219E3],"split_indices":[10,10,9,10,10,10,8,10,1,9,1,1,1,8,0,10,10,9,5,1,10,5,5,5,8,7,5,6,0,10,1,10,1,9,7,8,5,9,6,7,6,7,6,0,8,5,0,7,0,0,0,8,6,7,1,0,0,0,0,0,0,0,0,0,0,0,0,0,0,0,0,0,0,0,0,0,0,0,0,0,0,0,0,0,0,0,0,0,0,0,0,0,0,0,0,0,0],"split_type":[0,0,0,0,0,0,0,0,0,0,0,0,0,0,0,0,0,0,0,0,0,0,0,0,0,0,0,0,0,0,0,0,0,0,0,0,0,0,0,0,0,0,0,0,0,0,0,0,0,0,0,0,0,0,0,0,0,0,0,0,0,0,0,0,0,0,0,0,0,0,0,0,0,0,0,0,0,0,0,0,0,0,0,0,0,0,0,0,0,0,0,0,0,0,0,0,0],"sum_hessian":[1.2853E4,1.259E4,2.63E2,1.2245E4,3.45E2,2.08E2,5.5E1,1.2091E4,1.54E2,2.47E2,9.8E1,1.01E2,1.07E2,5.2E1,3E0,1.0905E4,1.186E3,5.4E1,1E2,5.6E1,1.91E2,7.3E1,2.5E1,2.7E1,7.4E1,8E0,9.9E1,4.5E1,7E0,9.683E3,1.222E3,8.89E2,2.97E2,3.4E1,2E1,7E0,9.3E1,4.8E1,8E0,9.7E1,9.4E1,3.6E1,3.7E1,6E0,1.9E1,2E1,7E0,6.2E1,1.2E1,3E0,5E0,9.5E1,4E0,4.1E1,4E0,8.131E3,1.552E3,1.013E3,2.09E2,3.49E2,5.4E2,7E0,2.9E2,9E0,2.5E1,1E0,1.9E1,4E0,3E0,8.1E1,1.2E1,1E0,4.7E1,2E0,6E0,9.1E1,6E0,2.9E1,6.5E1,3E0,3.3E1,2.4E1,1.3E1,1.5E1,4E0,1E0,1.9E1,3E0,5.9E1,8E0,8.7E1,3E0,1E0,1.1E1,3E1,1E0,3E0],"tree_param":{"num_deleted":"0","num_feature":"11","num_nodes":"97","size_leaf_vector":"1"}},{"base_weights":[6.769985E1,-6.895718E2,3.6573758E4,-9.7919714E2,9.27827E3,3.054363E4,5.9011953E4,-1.0141008E3,1.6494971E3,5.98808E3,1.3979383E4,2.2941244E4,4.208634E4,4.4056945E4,8.0414734E4,-1.071795E3,-4.570415E2,3.7689595E3,4.720082E2,4.3402803E3,8.0543857E3,1.1861612E4,2.4697055E4,1.8817648E4,3.1131771E4,5.558536E4,3.1138424E4,3.084396E4,5.1763832E4,4.3323916E3,2.1569644E3,-1.0866786E3,-9.241154E2,-6.463148E2,-1.6096378E2,1.795383E3,6.0530166E3,-5.430793E1,1.2820625E3,5.1785493E3,2.1804768E3,6.6174707E3,1.3594065E4,1.5380177E4,7.3772544E3,8.834701E3,2.8612447E4,1.3934067E4,2.1405658E4,3.282179E4,9.1171405E2,3.524735E4,3.1155334E3,2.6144453E4,4.700167E4,3.0211044E2,1.6091964E3,1.2916323E3,5.8685387E4,-5.45917E1,-5.154257E1,-4.8203655E1,-3.761561E1,-2.7932327E1,-4.252862E1,6.352236E0,-2.4427183E1,5.7157104E1,1.1518231E2,3.9933438E2,1.7524925E2,5.8811307E0,-1.7287989E1,1.00231476E2,2.1156782E1,2.7286838E2,2.989417E1,3.837138E1,1.22318436E2,3.8394598E2,2.2807532E2,7.6828503E2,4.3074844E2,6.6093353E2,1.0324996E3,4.82309E2,2.4660901E2,4.8716293E2,1.07297905E2,1.6296978E3,5.870867E2,7.508562E2,4.336189E2,1.2212953E3,7.198755E2,6.230169E2,1.7170647E3,9.0128937E2,1.9726107E3,7.8034186E2,1.467525E3,2.5076797E3,4.658592E2,3.0237925E3,8.404731E2],"categories":[],"categories_nodes":[],"categories_segments":[],"categories_sizes":[],"default_left":[0,0,0,0,0,0,0,0,0,0,0,0,0,0,0,0,0,0,0,0,0,0,0,0,0,0,0,0,0,0,0,0,0,0,0,0,0,0,0,0,0,0,0,0,0,0,0,0,0,0,0,0,0,0,0,0,0,0,0,0,0,0,0,0,0,0,0,0,0,0,0,0,0,0,0,0,0,0,0,0,0,0,0,0,0,0,0,0,0,0,0,0,0,0,0,0,0,0,0,0,0,0,0,0,0],"id":12,"left_children":[1,3,5,7,9,11,13,15,17,19,21,23,25,27,29,31,33,35,37,39,41,43,45,47,49,51,53,55,57,-1,-1,59,61,63,65,67,69,71,73,75,77,79,81,83,85,87,89,91,93,95,-1,97,-1,99,101,-1,-1,-1,103,-1,-1,-1,-1,-1,-1,-1,-1,-1,-1,-1,-1,-1,-1,-1,-1,-1,-1,-1,-1,-1,-1,-1,-1,-1,-1,-1,-1,-1,-1,-1,-1,-1,-1,-1,-1,-1,-1,-1,-1,-1,-1,-1,-1,-1,-1],"loss_changes":[3.5368776E11,3.6193985E10,3.3376895E10,1.1192914E9,5.3918003E9,1.7199202E10,1.3741425E10,3.858862E8,3.97524E8,6.8006144E8,2.9982044E9,3.7035295E9,1.0239836E10,1.8656543E9,1.1412521E9,2.2938624E7,6.3220736E7,2.4607488E8,4.4409464E7,2.0415744E8,6.4236646E8,1.8272911E9,1.1756861E9,8.013046E8,2.9519872E8,2.5909903E9,2.4945377E9,3.0404096E8,2.0736819E9,0E0,0E0,1.721344E6,6.16704E6,1.1862688E7,4.1762904E7,7.974936E6,1.0011021E8,3.2476755E6,2.4597688E7,1.0529664E8,1.1272736E7,1.2864486E8,2.6405632E7,5.0160435E8,2.6309376E8,1.5554016E7,8.26367E8,5.782323E7,8.124764E8,6.549668E8,0E0,8.540058E7,0E0,8.25727E8,7.2049664E8,0E0,0E0,0E0,1.0809344E8,0E0,0E0,0E0,0E0,0E0,0E0,0E0,0E0,0E0,0E0,0E0,0E0,0E0,0E0,0E0,0E0,0E0,0E0,0E0,0E0,0E0,0E0,0E0,0E0,0E0,0E0,0E0,0E0,0E0,0E0,0E0,0E0,0E0,0E0,0E0,0E0,0E0,0E0,0E0,0E0,0E0,0E0,0E0,0E0,0E0,0E0],"parents":[2147483647,0,0,1,1,2,2,3,3,4,4,5,5,6,6,7,7,8,8,9,9,10,10,11,11,12,12,13,13,14,14,15,15,16,16,17,17,18,18,19,19,20,20,21,21,22,22,23,23,24,24,25,25,26,26,27,27,28,28,31,31,32,32,33,33,34,34,35,35,36,36,37,37,38,38,39,39,40,40,41,41,42,42,43,43,44,44,45,45,46,46,47,47,48,48,49,49,51,51,53,53,54,54,58,58],"right_children":[2,4,6,8,10,12,14,16,18,20,22,24,26,28,30,32,34,36,38,40,42,44,46,48,50,52,54,56,58,-1,-1,60,62,64,66,68,70,72,74,76,78,80,82,84,86,88,90,92,94,96,-1,98,-1,100,102,-1,-1,-1,104,-1,-1,-1,-1,-1,-1,-1,-1,-1,-1,-1,-1,-1,-1,-1,-1,-1,-1,-1,-1,-1,-1,-1,-1,-1,-1,-1,-1,-1,-1,-1,-1,-1,-1,-1,-1,-1,-1,-1,-1,-1,-1,-1,-1,-1,-1],"split_conditions":[2.6974808E2,1.9093686E2,2.3669296E2,1.4914957E2,3E0,3E0,3E0,7.122254E1,3E0,2.3389919E2,2E0,3.2798322E2,4E0,3.5061023E2,5E0,5.0103535E1,3E0,3E0,3E0,2E0,2E0,4E0,1.590036E2,2.894666E2,9.2772566E-2,2.894666E2,3.2798322E2,2E0,1.3307836E3,4.3323916E3,2.1569644E3,3.5558456E1,2E0,2E0,4E0,1.7593314E2,4E0,2E0,4E0,3E0,2.042524E2,2E0,2E0,2.4442912E2,5E0,3E0,5E0,2E0,2E0,2.0259639E2,9.1171405E2,2E0,3.1155334E3,2E0,4E0,3.0211044E2,1.6091964E3,1.2916323E3,2E0,-5.45917E1,-5.154257E1,-4.8203655E1,-3.761561E1,-2.7932327E1,-4.252862E1,6.352236E0,-2.4427183E1,5.7157104E1,1.1518231E2,3.9933438E2,1.7524925E2,5.8811307E0,-1.7287989E1,1.00231476E2,2.1156782E1,2.7286838E2,2.989417E1,3.837138E1,1.22318436E2,3.8394598E2,2.2807532E2,7.6828503E2,4.3074844E2,6.6093353E2,1.0324996E3,4.82309E2,2.4660901E2,4.8716293E2,1.07297905E2,1.6296978E3,5.870867E2,7.508562E2,4.336189E2,1.2212953E3,7.198755E2,6.230169E2,1.7170647E3,9.0128937E2,1.9726107E3,7.8034186E2,1.467525E3,2.5076797E3,4.658592E2,3.0237925E3,8.404731E2],"split_indices":[10,10,9,10,2,2,2,10,1,10,1,10,2,10,2,10,2,2,2,2,1,2,9,10,4,10,10,1,7,0,0,10,1,2,2,10,2,2,2,1,10,2,2,10,2,1,2,2,2,9,0,1,0,1,3,0,0,0,2,0,0,0,0,0,0,0,0,0,0,0,0,0,0,0,0,0,0,0,0,0,0,0,0,0,0,0,0,0,0,0,0,0,0,0,0,0,0,0,0,0,0,0,0,0,0],"split_type":[0,0,0,0,0,0,0,0,0,0,0,0,0,0,0,0,0,0,0,0,0,0,0,0,0,0,0,0,0,0,0,0,0,0,0,0,0,0,0,0,0,0,0,0,0,0,0,0,0,0,0,0,0,0,0,0,0,0,0,0,0,0,0,0,0,0,0,0,0,0,0,0,0,0,0,0,0,0,0,0,0,0,0,0,0,0,0,0,0,0,0,0,0,0,0,0,0,0,0,0,0,0,0,0,0],"sum_hessian":[1.2792E4,1.2533E4,2.59E2,1.218E4,3.53E2,2.06E2,5.3E1,1.2021E4,1.59E2,2.09E2,1.44E2,1.26E2,8E1,3.3E1,2E1,1.0892E4,1.129E3,5.6E1,1.03E2,1.18E2,9.1E1,1.22E2,2.2E1,8.6E1,4E1,3.4E1,4.6E1,1.4E1,1.9E1,1.6E1,4E0,9.889E3,1.003E3,6.88E2,4.41E2,3.1E1,2.5E1,6.3E1,4E1,8.4E1,3.4E1,7.4E1,1.7E1,6.7E1,5.5E1,5E0,1.7E1,3.2E1,5.4E1,3.4E1,6E0,1E1,2.4E1,3.7E1,9E0,1E0,1.3E1,5E0,1.4E1,9.036E3,8.53E2,8.1E2,1.93E2,4.84E2,2.04E2,2.35E2,2.06E2,1.5E1,1.6E1,1.3E1,1.2E1,4E1,2.3E1,2.1E1,1.9E1,7.9E1,5E0,6E0,2.8E1,4.7E1,2.7E1,1.1E1,6E0,5E1,1.7E1,2.7E1,2.8E1,4E0,1E0,1.3E1,4E0,2.5E1,7E0,3.6E1,1.8E1,3E0,3.1E1,3E0,7E0,1E1,2.7E1,8E0,1E0,1.3E1,1E0],"tree_param":{"num_deleted":"0","num_feature":"11","num_nodes":"105","size_leaf_vector":"1"}},{"base_weights":[5.980905E1,-6.4659656E2,3.494007E4,-9.098828E2,9.666105E3,2.9027463E4,5.7691176E4,-9.5685736E2,2.7997039E3,6.3911255E3,1.4124228E4,2.1615389E4,3.997236E4,4.1047625E4,8.030557E4,-1.0206663E3,-4.3313437E2,1.5144727E3,4.7553965E3,4.850539E3,8.830786E3,1.0222943E4,1.8844094E4,1.7955326E4,2.894414E4,4.613364E4,2.3160365E4,4.411545E4,1.1894457E3,4.351025E3,2.0706855E3,-5.1816486E1,-9.22498E2,-5.2589044E2,1.08974754E2,3.7955954E2,1.9595182E3,2.1728826E3,5.962162E3,5.7225234E3,3.0045571E3,1.1429046E4,7.5629014E3,1.3274168E4,7.2212666E3,2.1102607E4,9.229153E3,1.99719E4,1.3064855E4,3.171743E4,1.0372216E3,3.764593E4,5.7781977E4,1.721769E4,2.9758342E4,4.567787E4,8.4554535E2,-4.85561E1,-4.250593E1,-3.360705E1,-1.5491119E1,-1.0730487E1,2.367907E1,5.8586483E1,5.5126357E0,1.17389175E2,1.471125E1,1.4166557E2,5.815399E1,3.7411667E2,1.8020184E2,2.8929123E2,2.279131E1,1.288293E2,2.464484E2,4.47292E2,8.073045E2,3.1316217E2,4.5996133E2,6.916137E2,3.5237274E2,4.434021E2,2.7354062E2,7.385095E2,1.1670753E3,6.846601E2,3.586336E2,1.0171038E3,3.1406287E2,4.6911255E2,8.5965704E2,4.5406662E2,1.6109729E3,3.6503003E2,1.914303E3,2.9648384E3,6.114145E2,9.1198193E2,3.525007E2,5.1525476E2,1.6666758E3,2.3591372E3,9.708097E2],"categories":[],"categories_nodes":[],"categories_segments":[],"categories_sizes":[],"default_left":[0,0,0,0,0,0,0,0,0,0,0,0,0,0,0,0,0,0,0,0,0,0,0,0,0,0,0,0,0,0,0,0,0,0,0,0,0,0,0,0,0,0,0,0,0,0,0,0,0,0,0,0,0,0,0,0,0,0,0,0,0,0,0,0,0,0,0,0,0,0,0,0,0,0,0,0,0,0,0,0,0,0,0,0,0,0,0,0,0,0,0,0,0,0,0,0,0,0,0,0,0,0,0],"id":13,"left_children":[1,3,5,7,9,11,13,15,17,19,21,23,25,27,29,31,33,35,37,39,41,43,45,47,49,51,53,55,-1,-1,-1,-1,57,59,61,63,65,67,69,71,73,75,77,79,81,83,85,87,89,91,-1,93,95,97,99,101,-1,-1,-1,-1,-1,-1,-1,-1,-1,-1,-1,-1,-1,-1,-1,-1,-1,-1,-1,-1,-1,-1,-1,-1,-1,-1,-1,-1,-1,-1,-1,-1,-1,-1,-1,-1,-1,-1,-1,-1,-1,-1,-1,-1,-1,-1,-1],"loss_changes":[3.1900703E11,3.446459E10,3.2896614E10,2.159099E9,4.5234115E9,1.5847604E10,1.6275603E10,4.079616E8,3.823932E8,6.4873165E8,2.2563594E9,2.8332564E9,7.42536E9,6.448333E8,1.8804244E9,1.5794176E7,6.688461E7,4.723963E7,1.7715085E8,1.6791782E8,1.4416384E8,5.910528E8,1.0864538E9,5.8720256E8,2.51648E8,3.657941E9,4.286597E8,3.3267712E8,0E0,0E0,0E0,0E0,4.481536E6,3.5657856E7,2.3107938E7,5.8442455E6,4.3276336E7,1.07096E7,1.2000832E8,2.30336E7,1.9420192E7,1.0154086E8,4.871629E7,2.7623936E7,6.6788864E7,3.2158925E8,2.1126144E7,1.7123533E8,2.6436915E8,2.5593856E7,0E0,4.3921E8,8.620032E8,2.7273216E7,3.519826E8,3.237888E7,0E0,0E0,0E0,0E0,0E0,0E0,0E0,0E0,0E0,0E0,0E0,0E0,0E0,0E0,0E0,0E0,0E0,0E0,0E0,0E0,0E0,0E0,0E0,0E0,0E0,0E0,0E0,0E0,0E0,0E0,0E0,0E0,0E0,0E0,0E0,0E0,0E0,0E0,0E0,0E0,0E0,0E0,0E0,0E0,0E0,0E0,0E0],"parents":[2147483647,0,0,1,1,2,2,3,3,4,4,5,5,6,6,7,7,8,8,9,9,10,10,11,11,12,12,13,13,14,14,15,15,16,16,17,17,18,18,19,19,20,20,21,21,22,22,23,23,24,24,25,25,26,26,27,27,32,32,33,33,34,34,35,35,36,36,37,37,38,38,39,39,40,40,41,41,42,42,43,43,44,44,45,45,46,46,47,47,48,48,49,49,51,51,52,52,53,53,54,54,55,55],"right_children":[2,4,6,8,10,12,14,16,18,20,22,24,26,28,30,32,34,36,38,40,42,44,46,48,50,52,54,56,-1,-1,-1,-1,58,60,62,64,66,68,70,72,74,76,78,80,82,84,86,88,90,92,-1,94,96,98,100,102,-1,-1,-1,-1,-1,-1,-1,-1,-1,-1,-1,-1,-1,-1,-1,-1,-1,-1,-1,-1,-1,-1,-1,-1,-1,-1,-1,-1,-1,-1,-1,-1,-1,-1,-1,-1,-1,-1,-1,-1,-1,-1,-1,-1,-1,-1,-1],"split_conditions":[1.8222705E2,1.359267E2,2.3669296E2,1.08143E2,3E0,3E0,3E0,4.5489628E1,3E0,1.6510701E2,1.590036E2,2.1821957E2,5E0,2E0,5E0,2.6374802E1,8.768709E1,1.1523316E2,1.1523316E2,2E0,1.9411924E1,4E0,5E0,2E0,4.935185E-2,2.0259639E2,2.0259639E2,8.696033E1,1.1894457E3,4.351025E3,2.0706855E3,-5.1816486E1,3E0,3E0,3E0,2.864656E2,3.5300227E4,1.5022377E1,4E0,3.5930586E4,2.181372E1,6.4515196E-2,1.7285806E2,8.773372E-2,5E0,7.3735313E0,7.72158E0,6.1349154E-1,2.0259639E2,1.2364391E0,1.0372216E3,3.5192165E0,9.913452E-2,1.900526E1,9.255735E0,2.0527048E1,8.4554535E2,-4.85561E1,-4.250593E1,-3.360705E1,-1.5491119E1,-1.0730487E1,2.367907E1,5.8586483E1,5.5126357E0,1.17389175E2,1.471125E1,1.4166557E2,5.815399E1,3.7411667E2,1.8020184E2,2.8929123E2,2.279131E1,1.288293E2,2.464484E2,4.47292E2,8.073045E2,3.1316217E2,4.5996133E2,6.916137E2,3.5237274E2,4.434021E2,2.7354062E2,7.385095E2,1.1670753E3,6.846601E2,3.586336E2,1.0171038E3,3.1406287E2,4.6911255E2,8.5965704E2,4.5406662E2,1.6109729E3,3.6503003E2,1.914303E3,2.9648384E3,6.114145E2,9.1198193E2,3.525007E2,5.1525476E2,1.6666758E3,2.3591372E3,9.708097E2],"split_indices":[9,9,9,9,2,2,2,9,2,9,9,9,2,2,2,9,9,9,9,2,5,2,2,2,4,9,9,5,0,0,0,0,2,2,2,6,6,8,2,6,8,4,9,4,2,8,5,4,9,5,0,8,4,8,8,8,0,0,0,0,0,0,0,0,0,0,0,0,0,0,0,0,0,0,0,0,0,0,0,0,0,0,0,0,0,0,0,0,0,0,0,0,0,0,0,0,0,0,0,0,0,0,0],"split_type":[0,0,0,0,0,0,0,0,0,0,0,0,0,0,0,0,0,0,0,0,0,0,0,0,0,0,0,0,0,0,0,0,0,0,0,0,0,0,0,0,0,0,0,0,0,0,0,0,0,0,0,0,0,0,0,0,0,0,0,0,0,0,0,0,0,0,0,0,0,0,0,0,0,0,0,0,0,0,0,0,0,0,0,0,0,0,0,0,0,0,0,0,0,0,0,0,0,0,0,0,0,0,0],"sum_hessian":[1.2945E4,1.2689E4,2.56E2,1.2374E4,3.15E2,2.05E2,5.1E1,1.222E4,1.54E2,1.83E2,1.32E2,1.24E2,8.1E1,3.1E1,2E1,1.0892E4,1.328E3,9.4E1,6E1,1.14E2,6.9E1,7.4E1,5.8E1,8.5E1,3.9E1,5.8E1,2.3E1,2.5E1,6E0,1.6E1,4E0,9.385E3,1.507E3,1.134E3,1.94E2,2.7E1,6.7E1,2E1,4E1,7.6E1,3.8E1,2E1,4.9E1,3.5E1,3.9E1,4.6E1,1.2E1,5.8E1,2.7E1,2.7E1,1.2E1,3.6E1,2.2E1,1.4E1,9E0,2.3E1,2E0,8.94E2,6.13E2,6.75E2,4.59E2,1.03E2,9.1E1,6E0,2.1E1,5.4E1,1.3E1,1.1E1,9E0,2.3E1,1.7E1,7.5E1,1E0,3.3E1,5E0,1.5E1,5E0,3E1,1.9E1,3.1E1,4E0,1.8E1,2.1E1,1.4E1,3.2E1,2E0,1E1,5.6E1,2E0,1.6E1,1.1E1,1E0,2.6E1,1E0,3.5E1,2.1E1,1E0,1.2E1,2E0,2E0,7E0,2.1E1,2E0],"tree_param":{"num_deleted":"0","num_feature":"11","num_nodes":"103","size_leaf_vector":"1"}},{"base_weights":[3.4489075E1,-9.394245E2,8.931753E3,-9.833285E2,-8.5053046E2,1.760293E4,-2.6323135E2,-9.520238E2,-4.9470264E1,-7.2701953E2,-4.872192E1,7.4003823E3,3.3646625E4,-4.9319714E2,7.492422E1,-9.162697E2,-4.9364456E1,-8.9112054E2,-4.7645673E2,5.0344155E3,1.0576548E4,2.539671E4,4.6788184E4,-5.612865E2,-6.2974697E1,3.3166168E2,-6.274322E2,-5.5698485E0,-9.173399E2,-4.6697235E1,-8.2333356E2,-6.119029E2,-2.7460327E2,4.1058594E3,9.476682E3,1.2623392E4,4.0867263E3,2.9310922E4,1.5003321E4,5.9597215E4,3.3811934E4,-4.700476E2,-7.7733246E2,9.35604E1,-4.1124277E2,2.2145412E2,1.0886945E3,-4.4064465E2,-7.089584E2,-4.737303E1,-4.3718445E1,-3.752076E1,-4.5078987E1,-3.32962E1,-1.7147797E1,-7.8612125E-1,-2.8186361E1,9.302446E1,2.3330244E2,5.4736346E2,3.196962E2,5.7390607E2,8.95612E2,1.0230134E2,2.3724223E2,9.83988E2,1.627748E3,1.9986723E2,7.711133E2,1.5528486E3,3.2769731E3,2.0274094E3,1.2412408E3,-2.9241322E1,-1.8375502E1,-3.925611E1,-1.7116517E0,-2.256563E1,9.800081E0,4.030888E0,-2.4363348E1,-4.7947383E0,1.6357769E1,7.313815E1,1.0223521E1,1.5710901E1,-2.4461962E1,-3.8031487E1,-1.5989776E1],"categories":[],"categories_nodes":[],"categories_segments":[],"categories_sizes":[],"default_left":[0,0,0,0,0,0,0,0,0,0,0,0,0,0,0,0,0,0,0,0,0,0,0,0,0,0,0,0,0,0,0,0,0,0,0,0,0,0,0,0,0,0,0,0,0,0,0,0,0,0,0,0,0,0,0,0,0,0,0,0,0,0,0,0,0,0,0,0,0,0,0,0,0,0,0,0,0,0,0,0,0,0,0,0,0,0,0,0,0],"id":14,"left_children":[1,3,5,7,9,11,13,15,-1,17,-1,19,21,23,25,27,-1,29,31,33,35,37,39,41,43,45,47,-1,49,-1,51,53,55,57,59,61,63,65,67,69,71,73,75,77,79,81,83,85,87,-1,-1,-1,-1,-1,-1,-1,-1,-1,-1,-1,-1,-1,-1,-1,-1,-1,-1,-1,-1,-1,-1,-1,-1,-1,-1,-1,-1,-1,-1,-1,-1,-1,-1,-1,-1,-1,-1,-1,-1],"loss_changes":[1.1074922E11,4.412416E7,1.0054584E11,5.23264E5,5.769165E7,1.0598361E11,4.770642E7,7.07968E5,0E0,7.831558E7,0E0,2.937602E9,2.6132742E10,1.06568E7,4.5108068E7,4.56832E5,0E0,2.586816E6,2.0610592E7,9.098158E8,2.1933486E9,5.947302E9,1.3941359E10,5.843832E6,2.818801E6,1.5026726E7,7.07884E5,0E0,1.0304E4,0E0,1.925184E6,6.36768E6,2.2969674E7,2.3282278E8,1.0680909E8,5.697188E8,4.6698816E7,2.8898836E9,1.4584218E8,5.9354153E9,2.0203766E9,2.421356E6,5.05672E5,2.0978862E6,6.3757525E5,5.431984E6,7.308398E6,9.97419E5,6.61638E5,0E0,0E0,0E0,0E0,0E0,0E0,0E0,0E0,0E0,0E0,0E0,0E0,0E0,0E0,0E0,0E0,0E0,0E0,0E0,0E0,0E0,0E0,0E0,0E0,0E0,0E0,0E0,0E0,0E0,0E0,0E0,0E0,0E0,0E0,0E0,0E0,0E0,0E0,0E0,0E0],"parents":[2147483647,0,0,1,1,2,2,3,3,4,4,5,5,6,6,7,7,9,9,11,11,12,12,13,13,14,14,15,15,17,17,18,18,19,19,20,20,21,21,22,22,23,23,24,24,25,25,26,26,28,28,30,30,31,31,32,32,33,33,34,34,35,35,36,36,37,37,38,38,39,39,40,40,41,41,42,42,43,43,44,44,45,45,46,46,47,47,48,48],"right_children":[2,4,6,8,10,12,14,16,-1,18,-1,20,22,24,26,28,-1,30,32,34,36,38,40,42,44,46,48,-1,50,-1,52,54,56,58,60,62,64,66,68,70,72,74,76,78,80,82,84,86,88,-1,-1,-1,-1,-1,-1,-1,-1,-1,-1,-1,-1,-1,-1,-1,-1,-1,-1,-1,-1,-1,-1,-1,-1,-1,-1,-1,-1,-1,-1,-1,-1,-1,-1,-1,-1,-1,-1,-1,-1],"split_conditions":[3E0,2E0,3E0,1E0,3E0,2E0,3E0,3E0,-4.9470264E1,2E0,-4.872192E1,3E0,3E0,3.5080168E4,5E0,2.5650185E-1,-4.9364456E1,3E0,3E0,3.5080168E4,5E0,2E0,4E0,2E0,2E0,3.45505E4,3.655822E-2,-5.5698485E0,2E0,-4.6697235E1,4E0,3.19115E4,4E0,3.5859143E2,2E0,3.5080168E4,4.3307074E2,6.685671E2,6.539642E2,4.4426633E2,5E0,7.372863E2,5.651372E-1,1.5189044E0,3.5192165E0,3.39966E2,4E0,1.7627434E2,3.5768945E4,-4.737303E1,-4.3718445E1,-3.752076E1,-4.5078987E1,-3.32962E1,-1.7147797E1,-7.8612125E-1,-2.8186361E1,9.302446E1,2.3330244E2,5.4736346E2,3.196962E2,5.7390607E2,8.95612E2,1.0230134E2,2.3724223E2,9.83988E2,1.627748E3,1.9986723E2,7.711133E2,1.5528486E3,3.2769731E3,2.0274094E3,1.2412408E3,-2.9241322E1,-1.8375502E1,-3.925611E1,-1.7116517E0,-2.256563E1,9.800081E0,4.030888E0,-2.4363348E1,-4.7947383E0,1.6357769E1,7.313815E1,1.0223521E1,1.5710901E1,-2.4461962E1,-3.8031487E1,-1.5989776E1],"split_indices":[0,0,1,0,1,1,2,1,0,1,0,2,2,6,2,5,0,2,2,6,2,2,2,2,2,6,4,0,1,0,2,6,2,6,2,6,6,6,7,6,2,6,4,5,8,6,2,6,7,0,0,0,0,0,0,0,0,0,0,0,0,0,0,0,0,0,0,0,0,0,0,0,0,0,0,0,0,0,0,0,0,0,0,0,0,0,0,0,0],"split_type":[0,0,0,0,0,0,0,0,0,0,0,0,0,0,0,0,0,0,0,0,0,0,0,0,0,0,0,0,0,0,0,0,0,0,0,0,0,0,0,0,0,0,0,0,0,0,0,0,0,0,0,0,0,0,0,0,0,0,0,0,0,0,0,0,0,0,0,0,0,0,0,0,0,0,0,0,0,0,0,0,0,0,0,0,0,0,0,0,0],"sum_hessian":[1.2779E4,1.1519E4,1.26E3,7.704E3,3.815E3,6.48E2,6.12E2,1.278E3,6.426E3,1.914E3,1.901E3,3.97E2,2.51E2,3.64E2,2.48E2,6.48E2,6.3E2,1.155E3,7.59E2,2.29E2,1.68E2,1.56E2,9.5E1,3.14E2,5E1,1.82E2,6.6E1,1E0,6.47E2,7E2,4.55E2,4.53E2,3.06E2,1.91E2,3.8E1,1.27E2,4.1E1,1.12E2,4.4E1,4.6E1,4.9E1,2.23E2,9.1E1,3.5E1,1.5E1,1.6E2,2.2E1,2.2E1,4.4E1,3.68E2,2.79E2,2.41E2,2.14E2,3.76E2,7.7E1,1.62E2,1.44E2,3.9E1,1.52E2,2.4E1,1.4E1,1.07E2,2E1,1.1E1,3E1,3E1,8.2E1,2E0,4.2E1,9E0,3.7E1,2.6E1,2.3E1,1.03E2,1.2E2,9E1,1E0,5E0,3E1,2E0,1.3E1,4E1,1.2E2,1.5E1,7E0,1E0,2.1E1,3.8E1,6E0],"tree_param":{"num_deleted":"0","num_feature":"11","num_nodes":"89","size_leaf_vector":"1"}},{"base_weights":[1.3449786E1,-6.102801E2,3.1821082E4,-8.42534E2,7.605199E3,2.6343957E4,5.0807453E4,-8.6938477E2,1.3059521E3,4.93768E3,1.1718098E4,2.0075176E4,3.615355E4,3.8556215E4,3.8747195E3,-9.194401E2,-3.9952957E2,3.123838E3,3.4759198E2,4.2023384E3,8.174834E3,1.5929027E4,7.2065703E3,1.0792337E4,2.2914846E4,4.781997E4,2.7572525E4,2.5253424E4,4.671235E4,-9.3028345E2,-7.707466E2,-5.678032E2,-1.5925783E2,1.6240044E3,4.8059766E3,-3.6548405E1,9.2471625E2,5.076283E3,2.4128472E3,6.4842793E3,1.0609765E4,1.1781364E4,2.5501736E4,5.4701494E3,4.5233014E2,3.4223453E2,1.1916723E4,2.5516959E4,7.9009015E2,3.511854E4,2.991371E3,2.0003717E4,3.457611E4,1.3491854E3,4.0920956E2,1.2061797E3,2.5823406E3,-4.6772587E1,-4.3569263E1,-4.0818455E1,-3.044621E1,-2.4411171E1,-3.6879868E1,5.932965E0,-2.2354933E1,4.798739E1,1.01821785E2,3.2136447E2,1.3245285E2,5.858641E0,-1.5719012E1,8.0468956E1,1.143111E1,1.446901E2,2.8220334E2,5.9631367E1,1.5040103E2,7.7217705E1,3.312881E2,6.240141E2,3.4781754E2,3.754703E2,6.4663934E2,1.311266E3,2.9384073E2,3.3651617E2,2.2052324E2,6.790805E2,3.6527344E2,7.101479E2,1.3427858E3,9.571217E2,2.0090023E3,4.4289224E2,1.123532E3,6.254159E2,1.8078737E3],"categories":[],"categories_nodes":[],"categories_segments":[],"categories_sizes":[],"default_left":[0,0,0,0,0,0,0,0,0,0,0,0,0,0,0,0,0,0,0,0,0,0,0,0,0,0,0,0,0,0,0,0,0,0,0,0,0,0,0,0,0,0,0,0,0,0,0,0,0,0,0,0,0,0,0,0,0,0,0,0,0,0,0,0,0,0,0,0,0,0,0,0,0,0,0,0,0,0,0,0,0,0,0,0,0,0,0,0,0,0,0,0,0,0,0,0,0],"id":15,"left_children":[1,3,5,7,9,11,13,15,17,19,21,23,25,27,-1,29,31,33,35,37,39,41,43,45,47,49,51,53,55,57,59,61,63,65,67,69,71,73,75,77,79,81,83,85,-1,-1,87,89,-1,91,-1,93,95,-1,-1,-1,-1,-1,-1,-1,-1,-1,-1,-1,-1,-1,-1,-1,-1,-1,-1,-1,-1,-1,-1,-1,-1,-1,-1,-1,-1,-1,-1,-1,-1,-1,-1,-1,-1,-1,-1,-1,-1,-1,-1,-1,-1],"loss_changes":[2.5376498E11,2.3943236E10,2.4243257E10,7.0499226E8,3.7272146E9,1.1142586E10,1.4667301E10,2.8305818E8,2.6198475E8,4.6791373E8,2.4498995E9,2.915922E9,6.0896133E9,3.0518272E9,0E0,1.6841728E7,4.689085E7,1.2338739E8,2.2203476E7,2.5987354E8,8.762598E7,2.4391557E9,1.6458368E8,5.1593984E7,1.2811059E9,2.4743035E9,1.6937472E9,2.8124774E8,1.3177528E9,2.272256E6,5.010432E6,8.868704E6,3.8451084E7,5.990376E6,6.690272E7,2.6420645E6,1.8695648E7,1.274112E8,3.9260864E7,7.240192E6,8.85568E6,1.4882406E8,1.2988416E8,1.972544E7,0E0,0E0,6.967859E7,6.0309504E8,0E0,6.055301E8,0E0,4.6086246E8,3.1546982E8,0E0,0E0,0E0,0E0,0E0,0E0,0E0,0E0,0E0,0E0,0E0,0E0,0E0,0E0,0E0,0E0,0E0,0E0,0E0,0E0,0E0,0E0,0E0,0E0,0E0,0E0,0E0,0E0,0E0,0E0,0E0,0E0,0E0,0E0,0E0,0E0,0E0,0E0,0E0,0E0,0E0,0E0,0E0,0E0],"parents":[2147483647,0,0,1,1,2,2,3,3,4,4,5,5,6,6,7,7,8,8,9,9,10,10,11,11,12,12,13,13,15,15,16,16,17,17,18,18,19,19,20,20,21,21,22,22,23,23,24,24,25,25,26,26,27,27,28,28,29,29,30,30,31,31,32,32,33,33,34,34,35,35,36,36,37,37,38,38,39,39,40,40,41,41,42,42,43,43,46,46,47,47,49,49,51,51,52,52],"right_children":[2,4,6,8,10,12,14,16,18,20,22,24,26,28,-1,30,32,34,36,38,40,42,44,46,48,50,52,54,56,58,60,62,64,66,68,70,72,74,76,78,80,82,84,86,-1,-1,88,90,-1,92,-1,94,96,-1,-1,-1,-1,-1,-1,-1,-1,-1,-1,-1,-1,-1,-1,-1,-1,-1,-1,-1,-1,-1,-1,-1,-1,-1,-1,-1,-1,-1,-1,-1,-1,-1,-1,-1,-1,-1,-1,-1,-1,-1,-1,-1,-1],"split_conditions":[2.6974808E2,1.9093686E2,2.3669296E2,9.960336E1,3E0,3E0,3E0,7.122254E1,3E0,1.7285806E2,4E0,2.894666E2,4E0,3.5061023E2,3.8747195E3,5.2986153E1,3E0,3E0,3E0,2E0,2E0,2.4442912E2,2.3389919E2,2E0,2E0,3.0476447E2,3.0476447E2,2E0,1.3307836E3,3.937922E1,2E0,2E0,4E0,1.7593314E2,4E0,2E0,4E0,1.359267E2,2.1616754E2,3.39966E2,2E0,1.359267E2,7.895179E-2,5E0,4.5233014E2,3.4223453E2,2E0,2E0,7.9009015E2,2E0,2.991371E3,2E0,4.804885E-3,1.3491854E3,4.0920956E2,1.2061797E3,2.5823406E3,-4.6772587E1,-4.3569263E1,-4.0818455E1,-3.044621E1,-2.4411171E1,-3.6879868E1,5.932965E0,-2.2354933E1,4.798739E1,1.01821785E2,3.2136447E2,1.3245285E2,5.858641E0,-1.5719012E1,8.0468956E1,1.143111E1,1.446901E2,2.8220334E2,5.9631367E1,1.5040103E2,7.7217705E1,3.312881E2,6.240141E2,3.4781754E2,3.754703E2,6.4663934E2,1.311266E3,2.9384073E2,3.3651617E2,2.2052324E2,6.790805E2,3.6527344E2,7.101479E2,1.3427858E3,9.571217E2,2.0090023E3,4.4289224E2,1.123532E3,6.254159E2,1.8078737E3],"split_indices":[10,10,9,9,2,2,2,10,1,9,2,10,2,10,0,10,2,2,2,2,1,10,10,1,2,10,10,3,7,10,1,2,2,10,2,2,2,9,10,6,2,9,4,2,0,0,2,1,0,1,0,1,4,0,0,0,0,0,0,0,0,0,0,0,0,0,0,0,0,0,0,0,0,0,0,0,0,0,0,0,0,0,0,0,0,0,0,0,0,0,0,0,0,0,0,0,0],"split_type":[0,0,0,0,0,0,0,0,0,0,0,0,0,0,0,0,0,0,0,0,0,0,0,0,0,0,0,0,0,0,0,0,0,0,0,0,0,0,0,0,0,0,0,0,0,0,0,0,0,0,0,0,0,0,0,0,0,0,0,0,0,0,0,0,0,0,0,0,0,0,0,0,0,0,0,0,0,0,0,0,0,0,0,0,0,0,0,0,0,0,0,0,0,0,0,0,0],"sum_hessian":[1.2789E4,1.2544E4,2.45E2,1.22E4,3.44E2,1.92E2,5.3E1,1.205E4,1.5E2,2.1E2,1.34E2,1.19E2,7.3E1,3.8E1,1.5E1,1.0889E4,1.161E3,5.1E1,9.9E1,1.73E2,3.7E1,6.8E1,6.6E1,2.9E1,9E1,2.9E1,4.4E1,1.6E1,2.2E1,1.0144E4,7.45E2,6.82E2,4.79E2,2.8E1,2.3E1,6E1,3.9E1,1.15E2,5.8E1,2.4E1,1.3E1,4.9E1,1.9E1,3.6E1,3E1,8E0,2.1E1,6.4E1,2.6E1,1.6E1,1.3E1,2.3E1,2.1E1,1.4E1,2E0,5E0,1.7E1,9.312E3,8.32E2,5.78E2,1.67E2,4.67E2,2.15E2,2.44E2,2.35E2,1.2E1,1.6E1,1.2E1,1.1E1,3.9E1,2.1E1,1.9E1,2E1,2.5E1,9E1,2E1,3.8E1,1E0,2.3E1,7E0,6E0,1.2E1,3.7E1,1.8E1,1E0,1.4E1,2.2E1,1.4E1,7E0,8E0,5.6E1,5E0,1.1E1,5E0,1.8E1,2E0,1.9E1],"tree_param":{"num_deleted":"0","num_feature":"11","num_nodes":"97","size_leaf_vector":"1"}},{"base_weights":[8.054191E0,-8.498921E2,7.919382E3,-8.875602E2,-7.7255206E2,1.5578985E4,-2.1937444E2,-8.590732E2,-4.4656544E1,-6.6423553E2,-4.393814E1,6.3825044E3,3.0469283E4,-4.43504E2,9.053613E1,-8.248337E2,-4.457364E1,-8.043003E2,-4.3694843E2,4.325798E3,9.346392E3,2.258273E4,4.2149152E4,-5.1285455E2,-4.127706E1,3.496704E2,-5.6386444E2,-4.8717284E0,-8.2581494E2,-4.2224377E1,-7.424659E2,-5.0719205E2,-1.265028E2,3.7260312E3,7.5876543E3,1.2260716E4,6.1695215E3,2.6272922E4,6.58974E2,4.9113062E4,2.2017646E4,-4.275949E2,-6.98945E2,3.6500632E2,-1.3267607E2,-1.0412603E2,4.8880072E2,-4.0299594E2,-6.3925433E2,-4.265227E1,-3.9366425E1,-3.37191E1,-4.0744602E1,-3.0803648E1,-1.7212873E1,-1.4837817E1,7.819763E0,2.2682127E2,1.1103603E2,2.4429561E2,4.3674728E2,2.3571587E2,6.4965216E2,4.057018E2,2.0609793E2,6.921889E2,1.4006919E3,1.2734572E3,2.8261357E3,1.803236E3,9.003322E2,-2.7807804E1,-1.4871277E1,-3.5299377E1,-1.275885E0,-3.8360577E0,2.4251417E1,-1.3682502E1,4.307787E0,5.486989E0,-1.956521E1,4.6289658E1,1.8616327E1,1.5032349E1,-2.2158377E1,-3.3748695E1,-1.6680761E1],"categories":[],"categories_nodes":[],"categories_segments":[],"categories_sizes":[],"default_left":[0,0,0,0,0,0,0,0,0,0,0,0,0,0,0,0,0,0,0,0,0,0,0,0,0,0,0,0,0,0,0,0,0,0,0,0,0,0,0,0,0,0,0,0,0,0,0,0,0,0,0,0,0,0,0,0,0,0,0,0,0,0,0,0,0,0,0,0,0,0,0,0,0,0,0,0,0,0,0,0,0,0,0,0,0,0,0],"id":16,"left_children":[1,3,5,7,9,11,13,15,-1,17,-1,19,21,23,25,27,-1,29,31,33,35,37,39,41,43,45,47,-1,49,-1,51,53,55,57,59,61,63,65,-1,67,69,71,73,75,77,79,81,83,85,-1,-1,-1,-1,-1,-1,-1,-1,-1,-1,-1,-1,-1,-1,-1,-1,-1,-1,-1,-1,-1,-1,-1,-1,-1,-1,-1,-1,-1,-1,-1,-1,-1,-1,-1,-1,-1,-1],"loss_changes":[8.6859506E10,3.2948224E7,7.8052655E10,4.63872E5,4.3006464E7,8.813075E10,4.2271904E7,7.01312E5,0E0,5.9498176E7,0E0,2.397908E9,2.1708194E10,9.825656E6,4.3609036E7,3.78464E5,0E0,2.260544E6,1.5614944E7,4.3733965E8,1.4334812E9,4.8239985E9,1.2657639E10,4.4768E6,2.0165244E6,1.1668076E7,6.27716E5,0E0,1.216E3,0E0,1.748336E6,1.0183824E7,6.5004405E6,2.3756493E8,6.891059E7,4.0296755E8,2.8507546E8,1.9058278E9,0E0,1.117433E10,8.71851E8,3.33214E6,4.23048E5,5.67382E5,1.3809581E6,2.7453155E6,6.831968E6,8.681645E5,2.98848E5,0E0,0E0,0E0,0E0,0E0,0E0,0E0,0E0,0E0,0E0,0E0,0E0,0E0,0E0,0E0,0E0,0E0,0E0,0E0,0E0,0E0,0E0,0E0,0E0,0E0,0E0,0E0,0E0,0E0,0E0,0E0,0E0,0E0,0E0,0E0,0E0,0E0,0E0],"parents":[2147483647,0,0,1,1,2,2,3,3,4,4,5,5,6,6,7,7,9,9,11,11,12,12,13,13,14,14,15,15,17,17,18,18,19,19,20,20,21,21,22,22,23,23,24,24,25,25,26,26,28,28,30,30,31,31,32,32,33,33,34,34,35,35,36,36,37,37,39,39,40,40,41,41,42,42,43,43,44,44,45,45,46,46,47,47,48,48],"right_children":[2,4,6,8,10,12,14,16,-1,18,-1,20,22,24,26,28,-1,30,32,34,36,38,40,42,44,46,48,-1,50,-1,52,54,56,58,60,62,64,66,-1,68,70,72,74,76,78,80,82,84,86,-1,-1,-1,-1,-1,-1,-1,-1,-1,-1,-1,-1,-1,-1,-1,-1,-1,-1,-1,-1,-1,-1,-1,-1,-1,-1,-1,-1,-1,-1,-1,-1,-1,-1,-1,-1,-1,-1],"split_conditions":[3E0,2E0,3E0,1E0,3E0,2E0,3E0,3E0,-4.4656544E1,2E0,-4.393814E1,3E0,3E0,3.5080168E4,5E0,2.5650185E-1,-4.457364E1,3E0,3.19115E4,3.492904E4,4E0,2E0,5E0,2E0,3.5614812E4,3.39966E2,3.655822E-2,-4.8717284E0,2E0,-4.2224377E1,4E0,3E0,3E0,2E0,9.1424E0,2.7936566E2,5E0,3.2240677E2,6.58974E2,4.4426633E2,4.2696943E0,7.372863E2,5.651372E-1,1.7124779E0,3.7065734E4,5.1946238E-2,1.3814232E1,1.7627434E2,3.586819E4,-4.265227E1,-3.9366425E1,-3.37191E1,-4.0744602E1,-3.0803648E1,-1.7212873E1,-1.4837817E1,7.819763E0,2.2682127E2,1.1103603E2,2.4429561E2,4.3674728E2,2.3571587E2,6.4965216E2,4.057018E2,2.0609793E2,6.921889E2,1.4006919E3,1.2734572E3,2.8261357E3,1.803236E3,9.003322E2,-2.7807804E1,-1.4871277E1,-3.5299377E1,-1.275885E0,-3.8360577E0,2.4251417E1,-1.3682502E1,4.307787E0,5.486989E0,-1.956521E1,4.6289658E1,1.8616327E1,1.5032349E1,-2.2158377E1,-3.3748695E1,-1.6680761E1],"split_indices":[0,0,1,0,1,1,2,1,0,1,0,2,2,6,2,5,0,2,6,6,2,2,2,2,6,6,4,0,1,0,2,2,2,2,5,6,2,6,0,6,5,6,4,5,7,4,5,6,7,0,0,0,0,0,0,0,0,0,0,0,0,0,0,0,0,0,0,0,0,0,0,0,0,0,0,0,0,0,0,0,0,0,0,0,0,0,0],"split_type":[0,0,0,0,0,0,0,0,0,0,0,0,0,0,0,0,0,0,0,0,0,0,0,0,0,0,0,0,0,0,0,0,0,0,0,0,0,0,0,0,0,0,0,0,0,0,0,0,0,0,0,0,0,0,0,0,0,0,0,0,0,0,0,0,0,0,0,0,0,0,0,0,0,0,0,0,0,0,0,0,0,0,0,0,0,0,0],"sum_hessian":[1.2795E4,1.1544E4,1.251E3,7.756E3,3.788E3,6.44E2,6.07E2,1.294E3,6.462E3,1.879E3,1.909E3,3.99E2,2.45E2,3.52E2,2.55E2,6.42E2,6.52E2,1.161E3,7.18E2,2.37E2,1.62E2,1.48E2,9.7E1,3E2,5.2E1,1.83E2,7.2E1,1E0,6.41E2,6.96E2,4.65E2,5.85E2,1.33E2,2.02E2,3.5E1,8.3E1,7.9E1,1.05E2,4.3E1,7.1E1,2.6E1,2.08E2,9.2E1,9E0,4.3E1,4.3E1,1.4E2,2.5E1,4.7E1,3.63E2,2.78E2,2.45E2,2.2E2,3.49E2,2.36E2,8.3E1,5E1,1.3E2,7.2E1,1.2E1,2.3E1,8E0,7.5E1,3.9E1,4E1,1.4E1,9.1E1,1.8E1,5.3E1,4E0,2.2E1,1.03E2,1.05E2,9.1E1,1E0,2E0,7E0,2.6E1,1.7E1,2.5E1,1.8E1,2.8E1,1.12E2,1E0,2.4E1,4.1E1,6E0],"tree_param":{"num_deleted":"0","num_feature":"11","num_nodes":"87","size_leaf_vector":"1"}},{"base_weights":[2.479209E1,-4.8029175E2,3.2025156E4,-7.4314307E2,8.754772E3,2.5527982E4,4.9901242E4,-7.798916E2,2.1507366E3,6.716994E3,1.5414126E4,1.9567701E4,3.58423E4,3.7422125E4,6.799673E4,-8.2814764E2,-3.2378195E2,3.104004E3,3.279453E2,4.7301577E3,9.680895E3,1.0635542E4,2.2398973E4,2.2106201E4,6.3066327E2,4.9651582E4,2.5228352E4,2.11966E3,9.7277924E2,7.632533E4,1.7921221E3,-8.3906024E2,-6.805487E2,-4.7919254E2,-8.879198E1,1.8164989E3,4.544616E3,7.133429E0,1.0257633E3,4.0921418E3,7.314865E3,1.2899241E4,6.4035625E3,6.233721E2,6.3461245E3,2.6006705E4,1.1861291E4,1.2582827E4,2.3507064E4,4.7532764E2,2.5555278E3,3.0139021E4,1.9122523E4,1.407147E3,4.078658E3,-4.2214066E1,-3.9228058E1,-3.658697E1,-2.716186E1,-2.6408588E1,-1.0884344E-1,1.0283607E1,-1.9659935E1,1.1628601E2,4.4064835E1,2.729819E2,8.657552E1,1.6905064E1,-1.3844649E1,6.105315E0,6.960558E1,2.3495662E2,1.3077507E2,4.0436398E2,2.2640779E2,5.5623785E2,8.153719E2,4.142024E2,2.2159766E2,6.120406E1,3.473729E2,1.3868673E3,2.611654E2,1.7125948E2,6.2090295E2,3.0383838E2,7.131502E2,1.2019025E3,6.48241E2,1.6145765E3,5.0238144E2,5.707613E2,1.1688055E3],"categories":[],"categories_nodes":[],"categories_segments":[],"categories_sizes":[],"default_left":[0,0,0,0,0,0,0,0,0,0,0,0,0,0,0,0,0,0,0,0,0,0,0,0,0,0,0,0,0,0,0,0,0,0,0,0,0,0,0,0,0,0,0,0,0,0,0,0,0,0,0,0,0,0,0,0,0,0,0,0,0,0,0,0,0,0,0,0,0,0,0,0,0,0,0,0,0,0,0,0,0,0,0,0,0,0,0,0,0,0,0,0,0],"id":17,"left_children":[1,3,5,7,9,11,13,15,17,19,21,23,25,27,29,31,33,35,37,39,41,43,45,47,-1,49,51,-1,-1,53,-1,55,57,59,61,63,65,67,69,71,73,75,77,-1,79,81,83,85,87,-1,-1,89,91,-1,-1,-1,-1,-1,-1,-1,-1,-1,-1,-1,-1,-1,-1,-1,-1,-1,-1,-1,-1,-1,-1,-1,-1,-1,-1,-1,-1,-1,-1,-1,-1,-1,-1,-1,-1,-1,-1,-1,-1],"loss_changes":[2.0699708E11,3.061178E10,2.1838774E10,1.3054771E9,4.632494E9,8.397136E9,9.197814E9,2.6620723E8,2.6657357E8,1.5382907E9,2.465364E9,1.415934E9,6.5156424E9,2.1225431E9,2.6203177E9,1.7062912E7,4.232056E7,1.7907904E8,1.2081572E7,2.388672E8,1.0459914E9,3.1376896E8,9.08075E8,6.247424E8,0E0,8.0266445E8,3.8314394E8,0E0,0E0,1.497088E9,0E0,2.236928E6,4.937568E6,1.6306832E7,4.158273E7,2.4142736E7,1.1152704E8,3.6657545E6,5.457918E6,1.0691814E8,3.0106752E7,1.3911654E8,1.6720256E8,0E0,4.3856704E7,6.823987E8,4.435328E6,3.357171E7,1.8620416E7,0E0,0E0,3.6749824E8,2.904791E8,0E0,0E0,0E0,0E0,0E0,0E0,0E0,0E0,0E0,0E0,0E0,0E0,0E0,0E0,0E0,0E0,0E0,0E0,0E0,0E0,0E0,0E0,0E0,0E0,0E0,0E0,0E0,0E0,0E0,0E0,0E0,0E0,0E0,0E0,0E0,0E0,0E0,0E0,0E0,0E0],"parents":[2147483647,0,0,1,1,2,2,3,3,4,4,5,5,6,6,7,7,8,8,9,9,10,10,11,11,12,12,13,13,14,14,15,15,16,16,17,17,18,18,19,19,20,20,21,21,22,22,23,23,25,25,26,26,29,29,31,31,32,32,33,33,34,34,35,35,36,36,37,37,38,38,39,39,40,40,41,41,42,42,44,44,45,45,46,46,47,47,48,48,51,51,52,52],"right_children":[2,4,6,8,10,12,14,16,18,20,22,24,26,28,30,32,34,36,38,40,42,44,46,48,-1,50,52,-1,-1,54,-1,56,58,60,62,64,66,68,70,72,74,76,78,-1,80,82,84,86,88,-1,-1,90,92,-1,-1,-1,-1,-1,-1,-1,-1,-1,-1,-1,-1,-1,-1,-1,-1,-1,-1,-1,-1,-1,-1,-1,-1,-1,-1,-1,-1,-1,-1,-1,-1,-1,-1,-1,-1,-1,-1,-1,-1],"split_conditions":[2.894666E2,2.042524E2,3.5061023E2,1.6013226E2,2E0,3E0,3E0,7.252545E1,3E0,3E0,3E0,2E0,4E0,2E0,5E0,5.3738293E1,3E0,3E0,3E0,2.5512506E2,4E0,2E0,5E0,2E0,6.3066327E2,1.1025867E2,5E0,2.11966E3,9.7277924E2,1.4858558E-2,1.7921221E3,3.937922E1,2E0,1.4152605E2,4E0,2E0,5E0,2E0,1.1008354E1,2E0,2E0,2.4442912E2,5E0,6.233721E2,2.3389919E2,2.5040367E4,3.3448672E0,3.5251438E4,2.2768738E1,4.7532764E2,2.5555278E3,3.2798322E2,1.2651796E1,1.407147E3,4.078658E3,-4.2214066E1,-3.9228058E1,-3.658697E1,-2.716186E1,-2.6408588E1,-1.0884344E-1,1.0283607E1,-1.9659935E1,1.1628601E2,4.4064835E1,2.729819E2,8.657552E1,1.6905064E1,-1.3844649E1,6.105315E0,6.960558E1,2.3495662E2,1.3077507E2,4.0436398E2,2.2640779E2,5.5623785E2,8.153719E2,4.142024E2,2.2159766E2,6.120406E1,3.473729E2,1.3868673E3,2.611654E2,1.7125948E2,6.2090295E2,3.0383838E2,7.131502E2,1.2019025E3,6.48241E2,1.6145765E3,5.0238144E2,5.707613E2,1.1688055E3],"split_indices":[10,10,10,10,1,2,2,10,1,2,2,2,2,2,2,10,2,2,2,10,2,2,2,1,0,6,2,0,0,4,0,10,1,10,2,2,2,2,8,2,2,10,2,0,10,6,8,6,8,0,0,10,8,0,0,0,0,0,0,0,0,0,0,0,0,0,0,0,0,0,0,0,0,0,0,0,0,0,0,0,0,0,0,0,0,0,0,0,0,0,0,0,0],"split_type":[0,0,0,0,0,0,0,0,0,0,0,0,0,0,0,0,0,0,0,0,0,0,0,0,0,0,0,0,0,0,0,0,0,0,0,0,0,0,0,0,0,0,0,0,0,0,0,0,0,0,0,0,0,0,0,0,0,0,0,0,0,0,0,0,0,0,0,0,0,0,0,0,0,0,0,0,0,0,0,0,0,0,0,0,0,0,0,0,0,0,0,0,0],"sum_hessian":[1.2805E4,1.2607E4,1.98E2,1.2259E4,3.48E2,1.47E2,5.1E1,1.2106E4,1.53E2,2.68E2,8E1,9.5E1,5.2E1,3.2E1,1.9E1,1.0947E4,1.159E3,1E2,5.3E1,1.62E2,1.06E2,4.9E1,3.1E1,6.8E1,2.7E1,2.1E1,3.1E1,2.4E1,8E0,1.4E1,5E0,1.0189E4,7.58E2,6.97E2,4.62E2,5.4E1,4.6E1,3.7E1,1.6E1,1.32E2,3E1,5.2E1,5.4E1,3.3E1,1.6E1,2.2E1,9E0,1E1,5.8E1,1E0,2E1,1.5E1,1.6E1,2E0,1.2E1,9.285E3,9.04E2,5.49E2,2.09E2,6.32E2,6.5E1,2.35E2,2.27E2,3.4E1,2E1,3.4E1,1.2E1,1.7E1,2E1,5E0,1.1E1,9.2E1,4E1,2.2E1,8E0,3.7E1,1.5E1,2.6E1,2.8E1,2E0,1.4E1,2E1,2E0,1E0,8E0,3E0,7E0,5.4E1,4E0,1.3E1,2E0,7E0,9E0],"tree_param":{"num_deleted":"0","num_feature":"11","num_nodes":"93","size_leaf_vector":"1"}},{"base_weights":[4.96367E1,-7.643357E2,7.3168496E3,-8.009282E2,-6.9071375E2,1.4402346E4,-1.9707263E2,-7.732976E2,-4.0312813E1,-5.881738E2,-3.9644714E1,5.96079E3,2.7233955E4,-2.4957219E2,1.4186076E2,-7.4213354E2,-4.02361E1,-3.6297115E1,-3.8111505E2,5.1780767E3,9.951235E3,2.108388E4,3.213585E4,-3.4792258E2,-1.6688606E2,7.636096E1,1.0718722E2,-4.258438E0,-7.4301324E2,-4.547022E2,-6.3491158E1,2.5629055E3,5.6755117E3,1.2726399E4,8.128493E3,1.6036824E4,2.3898291E4,3.5200508E4,1.7438434E4,-3.7272617E2,4.4277594E2,3.2645733E0,-2.5155026E2,3.3818008E2,-1.1049219E2,-3.84984E1,-3.517284E1,-2.4792694E1,-2.0437935E1,1.0894321E0,-2.4895233E1,8.799334E1,1.861986E2,3.0940985E2,1.9082329E2,5.6138763E2,1.1798817E3,7.399562E2,3.4135403E2,6.109812E2,9.513387E2,1.4657806E3,9.073003E2,1.6821143E3,2.7663015E3,1.019763E3,4.629321E2,-2.6484518E1,-1.6173212E1,3.730059E1,-1.5564389E1,1.8029955E1,-7.388391E0,-1.5993059E1,-6.0546794E0,3.180711E0,4.6232967E1,-9.6828785E0,3.8478798E1],"categories":[],"categories_nodes":[],"categories_segments":[],"categories_sizes":[],"default_left":[0,0,0,0,0,0,0,0,0,0,0,0,0,0,0,0,0,0,0,0,0,0,0,0,0,0,0,0,0,0,0,0,0,0,0,0,0,0,0,0,0,0,0,0,0,0,0,0,0,0,0,0,0,0,0,0,0,0,0,0,0,0,0,0,0,0,0,0,0,0,0,0,0,0,0,0,0,0,0],"id":18,"left_children":[1,3,5,7,9,11,13,15,-1,17,-1,19,21,23,25,27,-1,-1,29,31,33,35,37,39,41,-1,43,-1,45,47,49,51,53,55,57,59,61,63,65,67,69,71,73,75,77,-1,-1,-1,-1,-1,-1,-1,-1,-1,-1,-1,-1,-1,-1,-1,-1,-1,-1,-1,-1,-1,-1,-1,-1,-1,-1,-1,-1,-1,-1,-1,-1,-1,-1],"loss_changes":[7.599367E10,3.0570496E7,6.889523E10,5.12E5,3.979904E7,7.197794E10,1.1227736E7,6.47552E5,0E0,5.4550656E7,0E0,1.2071926E9,7.2812626E9,4.373996E6,3.919301E6,3.12928E5,0E0,0E0,1.796836E7,4.2645094E8,2.2535066E8,1.3212877E9,5.9173274E9,5.02885E6,4.2937105E6,0E0,4.261087E6,0E0,1.51392E5,9.78976E5,5.4196665E6,4.565965E7,2.470656E8,1.2606285E8,2.6357734E8,2.925097E8,1.805185E9,1.8705449E9,4.641956E8,1.692164E6,2.0614978E6,5.450194E6,1.734677E6,6.5432915E6,3.369447E6,0E0,0E0,0E0,0E0,0E0,0E0,0E0,0E0,0E0,0E0,0E0,0E0,0E0,0E0,0E0,0E0,0E0,0E0,0E0,0E0,0E0,0E0,0E0,0E0,0E0,0E0,0E0,0E0,0E0,0E0,0E0,0E0,0E0,0E0],"parents":[2147483647,0,0,1,1,2,2,3,3,4,4,5,5,6,6,7,7,9,9,11,11,12,12,13,13,14,14,15,15,18,18,19,19,20,20,21,21,22,22,23,23,24,24,26,26,28,28,29,29,30,30,31,31,32,32,33,33,34,34,35,35,36,36,37,37,38,38,39,39,40,40,41,41,42,42,43,43,44,44],"right_children":[2,4,6,8,10,12,14,16,-1,18,-1,20,22,24,26,28,-1,-1,30,32,34,36,38,40,42,-1,44,-1,46,48,50,52,54,56,58,60,62,64,66,68,70,72,74,76,78,-1,-1,-1,-1,-1,-1,-1,-1,-1,-1,-1,-1,-1,-1,-1,-1,-1,-1,-1,-1,-1,-1,-1,-1,-1,-1,-1,-1,-1,-1,-1,-1,-1,-1],"split_conditions":[3E0,2E0,3E0,1E0,3E0,2E0,3.502865E4,3E0,-4.0312813E1,2E0,-3.9644714E1,3.5080168E4,8.644468E2,7.06271E2,3.551661E4,2.5650185E-1,-4.02361E1,-3.6297115E1,3.19115E4,3.0390317E2,3.616775E4,3.329561E2,9.913452E-2,9.781491E1,8.804667E0,7.636096E1,1.1041691E1,-4.258438E0,2E0,5.730621E-2,3.6747203E4,6.3495564E1,1.3535753E3,2.3289942E1,8.230201E-3,5.9438046E-2,1.1489568E3,2.3748178E1,8.912832E1,1.576003E2,5.246216E-2,3.292924E-2,1.9991507E1,3.6861254E4,5.3751242E4,-3.84984E1,-3.517284E1,-2.4792694E1,-2.0437935E1,1.0894321E0,-2.4895233E1,8.799334E1,1.861986E2,3.0940985E2,1.9082329E2,5.6138763E2,1.1798817E3,7.399562E2,3.4135403E2,6.109812E2,9.513387E2,1.4657806E3,9.073003E2,1.6821143E3,2.7663015E3,1.019763E3,4.629321E2,-2.6484518E1,-1.6173212E1,3.730059E1,-1.5564389E1,1.8029955E1,-7.388391E0,-1.5993059E1,-6.0546794E0,3.180711E0,4.6232967E1,-9.6828785E0,3.8478798E1],"split_indices":[0,0,1,0,1,1,6,1,0,1,0,6,6,6,7,5,0,0,6,6,7,6,4,5,8,0,5,0,1,4,6,5,6,8,4,4,7,8,5,6,4,4,8,7,6,0,0,0,0,0,0,0,0,0,0,0,0,0,0,0,0,0,0,0,0,0,0,0,0,0,0,0,0,0,0,0,0,0,0],"split_type":[0,0,0,0,0,0,0,0,0,0,0,0,0,0,0,0,0,0,0,0,0,0,0,0,0,0,0,0,0,0,0,0,0,0,0,0,0,0,0,0,0,0,0,0,0,0,0,0,0,0,0,0,0,0,0,0,0,0,0,0,0,0,0,0,0,0,0,0,0,0,0,0,0,0,0,0,0,0,0],"sum_hessian":[1.2845E4,1.1552E4,1.293E3,7.71E3,3.842E3,6.65E2,6.28E2,1.27E3,6.44E3,1.921E3,1.921E3,4.02E2,2.63E2,5.44E2,8.4E1,6.5E2,6.2E2,1.152E3,7.69E2,3.38E2,6.4E1,1.19E2,1.44E2,2.47E2,2.97E2,1E0,8.3E1,1E0,6.49E2,6.24E2,1.45E2,5.5E1,2.83E2,2.3E1,4.1E1,4.5E1,7.4E1,1.18E2,2.6E1,2.4E2,7E0,9.9E1,1.98E2,4E1,4.3E1,3.75E2,2.74E2,3.24E2,3E2,1.22E2,2.3E1,3.4E1,2.1E1,2.2E2,6.3E1,2.2E1,1E0,5E0,3.6E1,2.2E1,2.3E1,3.6E1,3.8E1,1.12E2,6E0,1.8E1,8E0,5.5E1,1.85E2,5E0,2E0,2.9E1,7E1,1.29E2,6.9E1,2.8E1,1.2E1,4E1,3E0],"tree_param":{"num_deleted":"0","num_feature":"11","num_nodes":"79","size_leaf_vector":"1"}},{"base_weights":[5.560739E1,-4.7809662E2,2.551896E4,-6.665879E2,7.193397E3,1.9004479E4,3.6653484E4,-6.9579877E2,2.6859995E3,6.0120513E3,1.3449774E4,1.2930587E4,2.7323205E4,2.5573531E4,4.8140965E4,-7.441657E2,-2.0167146E2,1.3818832E3,4.4922114E3,3.9678645E3,8.628223E3,9.613267E3,1.703512E4,7.3800947E3,1.4608343E4,2.1558285E4,3.279317E4,2.891894E4,1.3570108E4,6.092797E4,3.270492E4,-7.546239E2,-5.586268E2,-2.7793112E2,5.352395E2,1.8429861E3,1.2673778E2,5.709516E3,2.2229907E3,4.6021787E3,2.4560063E3,1.1217524E4,5.884846E3,6.1616766E2,4.3158E3,1.8674775E4,4.5780645E3,5.881472E3,1.0393485E4,1.63401045E4,1.0247512E4,1.1357616E3,6.677453E2,1.7919498E2,3.3569695E4,1.7870793E4,3.1637691E4,3.4134384E2,1.4910391E4,5.4071014E2,3.1318323E3,1.0439792E3,2.0097604E3,-3.810778E1,-3.493155E1,-3.3391613E1,-2.3782244E1,-2.1549313E1,-2.9216375E0,5.5777903E0,5.8143867E1,1.15437454E2,5.297997E1,1.0711551E1,-7.179541E0,3.2276352E2,1.5191109E2,1.1956687E2,3.2012997E1,1.7413734E2,2.8828305E2,9.6741585E1,1.7359166E2,1.2003943E2,5.667089E2,3.5754367E2,1.8787326E2,2.455983E2,-2.6242298E1,1.082639E3,5.0254672E2,3.1175046E2,-9.819226E0,1.3304276E2,3.1595172E2,2.2479932E2,6.846307E2,4.389702E2,8.660558E2,5.416967E2,1.2656215E2,1.8174446E3,9.0271405E2,1.0989747E3,4.6830972E2,1.613907E3,3.2661777E2,4.387608E2,8.7689856E2],"categories":[],"categories_nodes":[],"categories_segments":[],"categories_sizes":[],"default_left":[0,0,0,0,0,0,0,0,0,0,0,0,0,0,0,0,0,0,0,0,0,0,0,0,0,0,0,0,0,0,0,0,0,0,0,0,0,0,0,0,0,0,0,0,0,0,0,0,0,0,0,0,0,0,0,0,0,0,0,0,0,0,0,0,0,0,0,0,0,0,0,0,0,0,0,0,0,0,0,0,0,0,0,0,0,0,0,0,0,0,0,0,0,0,0,0,0,0,0,0,0,0,0,0,0,0,0,0,0],"id":19,"left_children":[1,3,5,7,9,11,13,15,17,19,21,23,25,27,29,31,33,35,37,39,41,43,45,47,49,51,53,55,57,59,61,63,65,67,69,71,73,75,77,79,81,83,85,-1,87,89,91,93,95,97,99,-1,-1,-1,101,103,105,-1,107,-1,-1,-1,-1,-1,-1,-1,-1,-1,-1,-1,-1,-1,-1,-1,-1,-1,-1,-1,-1,-1,-1,-1,-1,-1,-1,-1,-1,-1,-1,-1,-1,-1,-1,-1,-1,-1,-1,-1,-1,-1,-1,-1,-1,-1,-1,-1,-1,-1,-1],"loss_changes":[1.7409874E11,1.8149325E10,1.8380292E10,1.2013404E9,2.1438136E9,8.1352417E9,1.0987823E10,2.900603E8,2.4347635E8,1.3294889E9,4.8273254E8,8.141138E8,1.5004099E9,1.6555438E9,7.0868746E9,2.1039616E7,6.1065852E7,3.622775E7,1.088505E8,1.2775117E8,7.2246784E8,3.0572954E8,3.8428723E8,5.1769344E7,3.9894835E8,4.780237E7,6.508708E8,6.060585E8,1.570048E7,1.3777142E9,1.1979715E9,3.881472E6,5.065216E6,3.299904E7,2.699411E7,1.4337776E7,4.564962E5,3.616704E7,2.998528E6,1.1146611E8,1.7106624E7,3.0385664E7,1.2395686E8,0E0,3.143632E7,2.9600614E8,3.2868448E7,9.961152E6,7.463443E7,2.336215E8,8.117658E7,0E0,0E0,0E0,7.6672205E8,1.4356403E8,2.715095E8,0E0,7.307008E6,0E0,0E0,0E0,0E0,0E0,0E0,0E0,0E0,0E0,0E0,0E0,0E0,0E0,0E0,0E0,0E0,0E0,0E0,0E0,0E0,0E0,0E0,0E0,0E0,0E0,0E0,0E0,0E0,0E0,0E0,0E0,0E0,0E0,0E0,0E0,0E0,0E0,0E0,0E0,0E0,0E0,0E0,0E0,0E0,0E0,0E0,0E0,0E0,0E0,0E0],"parents":[2147483647,0,0,1,1,2,2,3,3,4,4,5,5,6,6,7,7,8,8,9,9,10,10,11,11,12,12,13,13,14,14,15,15,16,16,17,17,18,18,